tree
version=v3
num_class=1
num_tree_per_iteration=1
label_index=0
max_feature_idx=46
objective=binary sigmoid:1
feature_names=userID assessmentItemID testId Timestamp KnowledgeTag diff mean user_correct_answer user_total_answer user_acc test_mean_x test_sum_x tag_mean_x tag_sum_x hour dow testcode problem_number test_mean_y test_sum_y tag_mean_y tag_sum_y ass_mean ass_sum prb_mean prb_sum hour_mean hour_sum dow_mean dow_sum problem_count tag_count RepeatedTime prior_KnowledgeTag_frequency problem_position solve_order retest solved_disorder tag_diff tag_diff_o tag_diff_x ass_diff ass_diff_o ass_diff_x prb_diff prb_diff_o prb_diff_x
feature_infos=[1:7440] [0:9453] [0:16] [1577837370:1609258034] [0:911] [-1:600] [22.033149171270718:579.83712121212125] [0:1473] [0:1850] [0:1] [0.32718579234972678:0.9554744525547445] [91:2670] [0.1889400921658986:0.97777777777777775] [18:10669] none none [1:9] [1:13] [0.32718579234972678:0.9554744525547445] [91:2670] [0.1889400921658986:0.97777777777777775] [18:10669] [0.049429657794676805:0.99630996309963105] [4:316] [0.20074349442379183:0.74991593926107247] [54:278785] none none none none [2:13] [1:8] [0:0.02432181214506568] [0:70] [0.076923076923076927:1] [1:16] [0:1] [0:1] [22.033149171270718:574.76033057851237] [25.27927927927928:576.79012345679007] [7.0175438596491224:584] [10.932907348242811:591.85777777777776] [11.029315960912053:596.5181818181818] [1:600] [46.416467780429592:548.75375986873075] [58.74290780141844:549.172229495848] [32.708213670304424:547.49891362805204]
tree_sizes=3445 3517 3506 3519 3515 3516 3536 3523 3540 3539 3534 3534 3534 3533 3539 3545 3531 3537 3541 3557 3556 3529 3540 3539 3541 3545 3552 3532 3534 3544 3553 3563 3555 3544 3558 3556 3552 3563 3556 3542 3556 3551 3566 3555 3540 3576 3576 3514 3559 3558 3559 3547 3564 3535 3574 3574 3544 3535 3539 3558 3559 3520 3549 3562 3557 3532 3529 3539 3547 3519 3560 3545 3543 3551 3534 3545 3547 3555 3513 3515 3519 3505 3530 3516 3514 3510 3513 3470 3513 3526 3426 3534 3535 3462 3512 3506 3522 3532 3452 3486 3521 3515 3517 3483 3550 3535 3505 3512 3512 3492 3516 3415 3452 3471 3420 3495 3456 3522 3515 3455 3528 3435 3552 3509 3500 3464 3380 3570 3454 3481 3442 3475 3505 3443 3515 3562 3514 3446 3469 3407 3472 3509 3447 3563 3462 3419 3459 3390 3470 3417 3451 3440 3420 3492 3458 3379 3449 3531 3491 3519 3440 3394 3436 3498 3452 3426 3426 3466 3514 3486 3429 3460 3502 3477 3455 3510 3452 3467 3503 3418 3422 3518 3497 3486 3520 3502 3455 3403 3450 3483 3530 3388 3412 3490 3488 3380 3497 3536 3437 3436 3479 3481 3407 3439 3401 3404 3360 3533 3447 3447 3490 3382 3442 3445 3468 3484 3421 3429 3440 3533 3439 3442 3438 3460 3438 3528 3502 3430 3409 3418 3509 3431 3499 3358 3491 3409 3426 3512 3457 3447 3522 3418 3507 3456 3505 3381 3396 3408 3575 3461 3485 3407 3423 3423 3423 3424 3401 3403 3468 3450 3483 3435 3536 3514 3433 3408 3401 3514 3426 3467 3490 3458 3474 3480 3462 3446 3496 3501 3441 3357 3426 3467 3393 3499 3438 3369 3411 3464 3418 3428 3437 3437 3413 3427 3402 3407 3399 3375 3480 3412 3468 3461 3536 3422 3516 3457 3455 3387 3423 3409 3486 3455 3437 3405 3501 3456 3429 3510 3516 3483 3463 3423 3454 3365 3459 3354 3431 3468 3429 3464 3462 3489 3513 3412 3535 3376 3486 3416 3459 3440 3444 3431 3450 3487 3382 3392 3483 3406 3389 3406 3386 3456 3383 3447 3454 3395 3505 3445 3413 3427 3464 3422 3510 3420 3386 3390 3420 3376 3435 3403 3512 3364 3443 3390 3449 3419 3381 3490 3468 3484 3440 3399 3417 3434 3398 3373 3414 3355 3451 3465 3437 3381 3429 3511 3353 3447 3452 3420 3482 3424 3475 3409 3488 3495 3417 3464 3374 3435 3497 3469 3437 3453 3430 3442 3408 3484 3388 3472 3397 3424 3492 3453 3407 3440 3443 3416 3494 3419 3484 3415 3369 3409 3442 3429 3470 3438 3447 3469 3455 3383 3403 3379 3422 3421 3466 3438 3395 3434 3463 3370 3469 3458 3454 3383 3381 3388 3425 3416 3459 3356 3428 3464 3458 3455 3468 3414 3419 3454 3434 3504 3472 3401 3401 3490 3464 3404 3504 3483 3419 3469 3379 3414 3449 3376 3536 3424 3507 3463 3423 3422 3375 3457 3495 3439 3430 3387 3390 3433 3423 3451 3447 3426 3452 3453 3430 3448 3398 3386 3431 3373 3377 3394 3408 3380 3389 3413 3463 3500 3431 3429 3461 3435 3438 3420 3431 3394 3420 3476 3420 3391 3405 3438 3498 3472 3402 3425 3446 3385 3430 3382 3401 3439 3384 3455 3442 3423 3406 3412 3377 3460 3456 3508 3413 3522 3427 3401 3377 3381 3476 3425 3413 3443 3437 3420 3421 3375 3372 3410 3417 3388 3405 3418 3520 3387 3463 3384 3452 3413 3438 3494 3427 3449 3404 3412 3434 3451 3497 3421 3430 3496 3405 3457 3391 3424 3412 3370 3398 3416 3509 3426 3424 3455 3428 3455 3461 3403 3394 3397 3452 3494 3425 3403 3382 3420 3417 3440 3436 3408 3401 3361 3412 3450 3401 3437 3401 3478 3387 3474 3381 3389 3418 3377 3396 3484 3409 3434 3406 3408 3502 3428 3481 3416 3392 3485 3422 3432 3418 3445 3434 3458 3422 3421 3398 3405 3444 3398 3382 3384 3359 3498 3432 3423 3400 3349 3423 3414 3395 3435 3422 3436 3496 3449 3439 3486 3420

Tree=0
num_leaves=31
num_cat=0
split_feature=22 5 5 22 22 9 9 9 22 22 1 43 1 5 9 5 9 22 9 1 22 2 22 1 9 22 9 9 5 42
split_gain=200864 78586.4 51500.7 21230.7 16376.7 9015.83 6092.32 5916.59 5664.96 3797.74 3577.17 2975.54 2952.32 2929.71 2646.59 2577.94 2232.61 2036.87 1925.54 1678.01 1620.58 1516.39 1396.28 1364.06 1333.66 1294.13 1210.1 1044.53 1021.64 1002.95
threshold=0.64274518584863427 11.500000000000002 5.5000000000000009 0.40900642108820556 0.81167375225671201 0.7071891751093321 0.75950392046328108 0.66681468324452353 0.90377492877492893 0.28519321642997714 6524.5000000000009 40.41048534798535 6575.5000000000009 10.500000000000002 0.75377575636089678 1.0000000180025095e-35 0.52461035290317382 0.89116499442586405 0.77782047997267079 6479.5000000000009 0.53856778580535491 11.500000000000002 0.45577665868087819 6613.5000000000009 0.60544516576402108 0.53047114794352368 0.40071562075940298 0.80770958601147291 3.5000000000000004 34.875239169058368
decision_type=2 2 2 2 2 2 2 2 2 2 2 2 2 2 2 2 2 2 2 2 2 2 2 2 2 2 2 2 2 2
left_child=1 6 8 9 7 11 10 13 15 -3 -1 -5 20 -4 -11 -2 -13 24 21 -8 -7 28 -12 -16 -6 -18 -15 -9 -17 -30
right_child=2 3 4 5 17 12 19 27 -10 14 22 16 -14 26 23 18 25 -19 -20 -21 -22 -23 -24 -25 -26 -27 -28 -29 29 -31
leaf_value=0.3955113858412781 0.66447601709870141 0.47161742513396898 0.55293003447459521 0.64723504252203656 0.70922410265719027 0.62167273835276582 0.47901657089794242 0.70286582980864432 0.67107960987039406 0.52767921993494427 0.44374887104998595 0.55027082888045564 0.70562321093601987 0.62060744216032515 0.5703960215485957 0.38322373887855832 0.57785932452203548 0.76964644225101941 0.59268821607486444 0.59420508562998764 0.66876700726416793 0.51060702284290682 0.4828044322220138 0.66101504462527505 0.74900930650323982 0.62741782260530354 0.67699642124259363 0.73108509437902813 0.61476803632222676 0.43963919742799473
leaf_weight=9928.4230327606201 699.4614679813385 7514.7502176761627 2379.3434178829193 10561.484219312668 10818.954698324203 12819.319639205933 1859.8854339122772 33500.748791456223 1826.2335906028748 12669.806080341339 18392.877955913544 11316.956809043884 13000.6782310009 4497.6027359962463 4502.7973158359528 3265.809760093689 9540.6363551616669 45250.662537574768 1051.5636405944824 3951.7201502323151 16992.599912166595 2675.6603200435638 18223.489482879639 2632.0710196495056 38087.562789916992 11769.111106395721 24737.944304466248 21557.506334781647 399.07924246788025 1810.875702381134
leaf_count=43960 3097 33273 10535 46763 47903 56760 8235 148331 8086 56098 81438 50108 57563 19914 19937 14460 42243 200356 4656 17497 75238 11847 80688 11654 168640 52110 109532 95450 1767 8018
internal_value=0.642855 0.562128 0.712312 0.608942 0.725483 0.633338 0.460804 0.694116 0.509247 0.532145 0.448751 0.601101 0.665858 0.659637 0.555112 0.479401 0.586167 0.754356 0.465335 0.557341 0.648516 0.448906 0.463186 0.603826 0.740208 0.60523 0.668322 0.713915 0.418756 0.471264
internal_weight=0 165677 192559 113320 180830 86000.8 52356.4 86673.1 11728.7 27319.4 46544.8 43188.2 42812.6 31614.9 19804.7 9902.45 32626.7 94157.2 9202.99 5811.61 29811.9 8151.43 36616.4 7134.87 48906.5 21309.7 29235.5 55058.3 5475.76 2209.95
internal_count=1586157 733565 852592 501747 800661 380785 231818 383762 51931 120962 206086 191224 189561 139981 87689 43845 144461 416899 40748 25732 131998 36092 162126 31591 216543 94353 129446 243781 24245 9785
is_linear=0
shrinkage=1


Tree=1
num_leaves=31
num_cat=0
split_feature=22 5 5 22 22 9 9 9 22 22 9 1 43 5 1 9 5 9 9 42 9 22 1 5 9 22 9 22 1 22
split_gain=163211 64288.3 37269.8 18401.8 11799.8 6750.48 5435.64 4403.61 4072.65 3974.24 2610.6 2468.46 2266.95 2052.8 2009.16 1802.5 1671.44 1662.51 1660.69 1505.93 1455.15 1430.5 1406.27 1176.97 1097.72 1057.36 942.04 915.863 910.482 829.847
threshold=0.66518840465701701 12.500000000000002 5.5000000000000009 0.44459791282995703 0.82430273724203451 0.71434317894494892 0.79024750513384023 0.57764485523408038 0.91967544316996885 0.33049516908212567 0.67684682915654182 6524.5000000000009 39.161006731638707 1.0000000180025095e-35 6613.5000000000009 0.50588928967813551 9.5000000000000018 0.64002314814814831 0.73686863327674035 62.325699834510417 0.75511154182343343 0.89278872468527648 6575.5000000000009 8.5000000000000018 0.77037831823239566 0.54582652755091854 0.60005640157924434 0.5608215229401875 6479.5000000000009 0.40900642108820556
decision_type=2 2 2 2 2 2 2 2 2 2 2 2 2 2 2 2 2 2 2 2 2 2 2 2 2 2 2 2 2 2
left_child=1 6 8 9 7 12 11 16 13 24 -11 19 -5 -2 25 -14 -4 29 -15 -1 23 26 -12 -9 -3 -7 -6 -17 -8 -13
right_child=2 3 4 5 21 14 28 20 -10 10 22 17 15 18 -16 27 -18 -19 -20 -21 -22 -23 -24 -25 -26 -27 -28 -29 -30 -31
leaf_value=-0.12609982872398121 0.030687544881929221 -0.14870455277653447 -0.10646181488272483 0.016277026062806604 0.06465554639182057 -0.0089917426434422739 -0.10643990640203807 -0.054840433001844859 0.050234143538226084 -0.096417746418419825 -0.05659777288752868 -0.18319547968299069 -0.073719435105081152 -0.16851900081045945 0.066024197716508776 -0.043866868949632626 0.016657151397242963 -0.11318066054286179 -0.056787197994239515 -0.21582873264498895 0.079650688463118277 0.11980125052000086 0.010129693027600351 0.053422433977145106 -0.086911813197287441 0.030238895520740945 0.10151710597761679 -0.0051337937118865621 -0.013519189490369407 -0.14905991300617227
leaf_weight=2272.1226339787245 696.57635015249252 8805.1661061346531 1185.7331690937281 9582.1820532530546 8841.4573368877172 10755.744789332151 1668.5061865001917 1037.9041088223457 1364.9677677750587 10827.376689493656 7976.0293438434601 10862.556465521455 10312.975259616971 7129.4180197864771 11033.736664041877 11823.411230698228 15738.826377332211 9543.6700786352158 1635.3987114131451 10579.747776344419 33903.204196125269 42155.005565166473 5228.875357106328 30895.753605797887 4268.5024130046368 19018.102583110332 32119.293920308352 12621.562066480517 2865.5039600431919 20679.757938191295
leaf_count=9575 3106 37449 5133 42538 40027 47393 7141 4602 6098 46682 34672 45631 44621 30052 49871 51612 70164 40518 7066 44180 154125 194848 23163 139174 18285 85180 147370 55834 12522 87525
internal_value=0 -0.0666345 0.0685222 -0.0253869 0.080255 0.00022452 -0.152876 0.0535267 -0.111244 -0.084158 -0.0600197 -0.161715 -0.0267872 -0.13454 0.0295746 -0.0386593 0.00803145 -0.149751 -0.147671 -0.199965 0.0652221 0.106869 -0.030175 0.0499037 -0.128529 0.0160669 0.0935605 -0.023868 -0.0477138 -0.160816
internal_weight=0 180726 176704 122254 165877 85147.7 58471.9 82761.4 10826.4 37105.9 24032.3 53937.9 44340.1 9461.39 40807.6 34757.9 16924.6 41086 8764.82 12851.9 65836.9 83115.8 13204.9 31933.7 13073.7 29773.8 40960.8 24445 4534.01 31542.3
internal_count=1586157 784392 801765 537300 755443 377049 247092 373198 46322 160251 104517 227429 194605 40224 182444 152067 75297 173674 37118 53755 297901 382245 57835 143776 55734 132573 187397 107446 19663 133156
is_linear=0
shrinkage=0.1


Tree=2
num_leaves=31
num_cat=0
split_feature=22 5 5 22 22 9 5 22 9 9 9 35 1 9 43 42 1 1 9 9 43 1 22 5 42 22 22 22 9 9
split_gain=133642 53984.1 27934.4 16549.3 9603.98 5906.66 4301.87 3738.73 3675.95 2984.6 2958.81 2693.33 2432.13 2144.6 1873.36 1638.11 1567.35 1478.82 1465.7 1288.02 1254.83 1190.41 1106.16 930.358 886.07 835.346 806.858 796.01 784.827 783.439
threshold=0.68248863427860806 10.500000000000002 4.5000000000000009 0.46084952915247451 0.8355050933786079 0.73856806586132329 7.5000000000000009 0.31826693905345599 0.82541188518418129 0.62506952169076768 0.76226620851422822 1.5000000000000002 6479.5000000000009 0.41863967497898574 29.303426613363794 24.882055148642831 6524.5000000000009 6613.5000000000009 0.6378842454974647 0.53867154894868652 40.41048534798535 6613.5000000000009 0.57116204690831573 40.500000000000007 41.034584717607977 0.9054299754299755 0.74718041127835499 0.57403255273210441 0.54229812476081141 0.30330601092896181
decision_type=2 2 2 2 2 2 2 2 2 2 2 2 2 2 2 2 2 2 2 2 2 2 2 2 2 2 2 2 2 2
left_child=1 8 11 7 6 13 24 23 12 29 20 -2 -1 -5 -15 -13 -17 27 -14 -6 -9 -12 -16 -3 -4 -21 -11 -7 -22 -8
right_child=2 3 4 5 19 17 9 10 -10 26 21 15 18 14 22 16 -18 -19 -20 25 28 -23 -24 -25 -26 -27 -28 -29 -30 -31
leaf_value=-0.17976215952075866 0.065056620529542725 -0.15979376016526292 0.01796650352094218 -0.068960689889305898 0.06965356101230484 0.0029493060640910056 -0.039968278727174074 -0.035032418566860048 -0.018531502849196774 0.053473845575379646 -0.036050651182392875 0.018025513397444532 -0.1411648438968196 0.044547286130026675 -0.03579321840527943 -0.17927179539098856 -0.073800765071986518 0.069535734900917842 -0.098467869711684253 0.097310177607721815 -0.12203324820545312 0.033145433060325913 -0.0020602971993917978 -0.099871126167276517 -0.10687392707448017 0.12035955029454233 0.078060619869029318 0.037149530255715262 -0.074200982393394288 0.030616081178132849
leaf_weight=13050.775766327977 759.47634522616863 3810.1329336464405 802.07196666300297 7152.7163695544004 10531.556069299579 11676.391520753503 1707.0078529268503 5863.2199745476246 2521.2264472395182 21552.37326541543 6680.3859751671553 656.29047831892967 32012.640194892883 5521.463650405407 18101.977578520775 4680.6580249518156 2015.7423573285341 8972.4938489198685 10736.309819310904 35927.383180469275 4984.8081601560116 3959.8897881954908 20996.143110021949 8097.6491901874542 1952.6151329427958 27960.085736617446 35059.673076793551 16314.052646398544 10999.85963614285 19954.771008625627
leaf_count=52981 3428 15748 3532 30692 49899 51663 7566 25167 10837 99907 28750 2890 131072 24668 78498 19282 8380 41474 44681 171339 20935 17843 93105 33545 8377 135288 163531 74203 46806 90070
internal_value=0 -0.0564116 0.066679 -0.0212657 0.0761198 0.00367305 0.0522989 -0.0711113 -0.13664 0.0566215 -0.0535424 -0.114228 -0.141977 -0.018127 -0.00997813 -0.132746 -0.147523 0.0342074 -0.130442 0.102056 -0.0746029 -0.0102986 -0.0176782 -0.119045 -0.0705246 0.107398 0.0687004 0.0228827 -0.0891174 0.0250538
internal_weight=0 191452 163560 133131 155448 88735.2 81028.5 44395.9 58321 78273.8 32488.2 8112.17 55799.7 51772.3 44619.6 7352.69 6696.4 36962.9 42749 74419 21847.9 10640.3 39098.1 11907.8 2754.69 63887.5 56612 27990.4 15984.7 21661.8
internal_count=1586157 822668 763489 583097 729509 394303 372983 188794 239571 361074 139501 33980 228734 226963 196271 30552 27662 167340 175753 356526 92908 46593 171603 49293 11909 306627 263438 125866 67741 97636
is_linear=0
shrinkage=0.1


Tree=3
num_leaves=31
num_cat=0
split_feature=22 5 5 22 22 9 9 9 42 22 5 9 9 5 43 1 43 42 5 43 1 22 5 22 9 9 42 1 22 22
split_gain=109901 41819.2 24285.6 11946 8612.46 4843.38 3872.92 3326.04 2690.02 2439.13 2252.53 1958.64 1839.25 1698.49 1653.83 1519.86 1284.35 1256.64 1202.58 1167.65 1079.45 1054.75 1148.17 1052.06 1033.82 999.387 993.417 903.764 873.969 727.194
threshold=0.67652525694292598 13.500000000000002 5.5000000000000009 0.440840220385675 0.83963342450095946 0.65833639480773953 0.74157913357488814 0.70372145875501591 28.584000571918789 0.28519321642997714 1.0000000180025095e-35 0.80008190008190028 0.81821789321789329 8.5000000000000018 99.102851605758602 6386.5000000000009 39.161006731638707 64.643657700421954 2.5000000000000004 47.13506350635064 6524.5000000000009 0.45577665868087819 6.5000000000000009 0.7545621045621046 0.83562828838223457 0.51726345534019169 63.91847185381669 6524.5000000000009 0.57116204690831573 0.90942712605961185
decision_type=2 2 2 2 2 2 2 2 2 2 2 2 2 2 2 2 2 2 2 2 2 2 2 2 2 2 2 2 2 2
left_child=1 6 8 9 7 14 15 13 18 -3 -10 19 16 -4 -5 26 -7 -8 -2 -11 -19 -17 -23 -15 27 -6 -1 -12 -18 -27
right_child=2 3 4 5 25 12 17 -9 10 11 24 -13 -14 23 -16 21 28 20 -20 -21 -22 22 -24 -25 -26 29 -28 -29 -30 -31
leaf_value=-0.10247419944618744 -0.17853715855774654 -0.11472852334826178 -0.069538600836989345 -0.013278670269967577 0.065279419275061243 0.047625327671605627 -0.010502349559818356 0.067735204890985529 0.048267506332229176 -0.033194213419300199 -0.15091364097056612 -0.0041926953055448427 0.047296486054571374 0.013411508161215658 -0.061159726777345706 -0.13458769622408245 -0.017552488966752551 -0.13823485438266189 0.078709972587909433 -0.082108489706586518 -0.049704640107295195 -0.11141293483207695 -0.040742595916101222 0.047825013824648425 0.031006113748261729 0.092827376672468653 -0.17149289640035484 -0.075155392300452067 0.016237763919909453 0.11525226195021328
leaf_weight=2614.1324514299631 212.99334196746349 7988.0858801156282 1718.3156974464655 24454.178828895092 8378.9374865591526 6672.0229244679213 3522.5351979583502 45754.378161475062 861.20368613302708 7192.9107176363468 5666.8816663771868 6546.4096282422543 17329.704156532884 16238.742000162601 10232.210192278028 20222.104526504874 15433.628570914268 2359.482377961278 1237.8408825099468 15178.523553907871 3308.5024044215679 18552.299815788865 2624.1388459205627 19612.533179536462 420.91485475003719 34720.907089576125 10311.537428051233 2180.6359676420689 15186.128080889583 24782.068092763424
leaf_count=10674 908 32374 7342 106193 40967 30706 14927 219449 3945 30390 22985 28311 79332 74347 43774 81412 68020 9685 5558 63115 13971 75036 10827 91200 1787 172903 41417 8908 69135 126559
internal_value=0 -0.0512615 0.0609235 -0.0179568 0.0711722 0.00182026 -0.117443 0.049631 -0.0855419 -0.0658148 -0.105642 -0.0523032 0.0203781 0.0275826 -0.0274032 -0.1276 0.00786896 -0.0574076 0.0409442 -0.0663815 -0.0865582 -0.118254 -0.102656 0.0322375 -0.121673 0.0976138 -0.157534 -0.129862 -0.000793926 0.102167
internal_weight=0 189729 161786 126214 151206 89307.9 63514.7 83324 10580.5 36905.9 9129.64 28917.8 54621.5 37569.6 34686.4 54324.2 37291.8 9190.52 1450.83 22371.4 5667.98 41398.5 21176.4 35851.3 8268.43 67881.9 12925.7 7847.52 30619.8 59503
internal_count=1586157 809299 776858 551350 732767 397160 257949 392338 44091 154190 37625 121816 247193 172889 149967 219366 167861 38583 6466 93505 23656 167275 85863 165547 33680 340429 52091 31893 137155 299462
is_linear=0
shrinkage=0.1


Tree=4
num_leaves=31
num_cat=0
split_feature=22 5 5 22 22 9 9 9 1 9 2 9 35 5 2 22 5 42 9 35 22 43 1 22 9 22 5 5 43 1
split_gain=90985.9 36630.5 18120.5 12010 7037.97 3894.45 3349.37 3193.04 2727.21 2430.44 2031.86 1808.39 1751.53 1664.3 1444.02 1434.56 1130.37 1119.56 1073.87 996.062 990.749 988.481 920.256 885.438 799.62 715.798 696.148 688.68 651.258 635.706
threshold=0.6955097240307474 9.5000000000000018 4.5000000000000009 0.49253689780005577 0.85741037988229007 0.57764485523408038 0.61430221049158706 0.5882671595181953 6613.5000000000009 0.83339728830903059 11.500000000000002 0.80342547035214762 1.5000000000000002 8.5000000000000018 11.500000000000002 0.35264782565918934 7.5000000000000009 22.261063807421426 0.55561620572537618 1.5000000000000002 0.35264782565918934 35.183300395256921 6479.5000000000009 0.77489976198463295 0.58538094663124862 0.51793134151167408 20.500000000000004 32.500000000000007 42.595652173913052 6613.5000000000009
decision_type=2 2 2 2 2 2 2 2 2 2 2 2 2 2 2 2 2 2 2 2 2 2 2 2 2 2 2 2 2 2
left_child=1 9 12 6 7 19 20 13 15 10 -1 14 -2 -4 -7 -8 -9 -14 -12 -5 -3 -10 -19 -18 -6 -20 -21 -17 -16 -13
right_child=2 3 4 5 24 11 8 16 21 -11 18 29 17 -15 28 27 23 22 25 26 -22 -23 -24 -25 -26 -27 -28 -29 -30 -31
leaf_value=-0.14841758696381224 0.057191551322628986 -0.12275229330576386 -0.090194013834643261 -0.070330139313337897 0.071369419903774073 -0.0021682418860736168 -0.088234670025004819 -0.017925784489029796 0.0319408076726709 -0.00520126753202323 -0.11663787126542897 0.03634749635387622 0.04480300627617357 0.021938931469497318 0.062669020883274668 -0.075360551024678396 0.049325359175589001 -0.14075323266941428 -0.098428429330759723 -0.060319916279277547 -0.07173246849793477 -0.02190449144827716 -0.054419158584243926 0.073149021498816233 0.10140501102552679 -0.055808704264161971 -0.0075430647576924265 -0.025899587261708393 0.016942199424724639 0.081175752555361913
leaf_weight=13032.759214639664 718.43489453196526 5480.3729764223099 1433.6733219474554 4724.9889397770166 11023.987759202719 32341.624522313476 8566.4863890260458 1798.1752959936857 5733.5403179377317 2139.8401706218719 25526.897560656071 15364.693622633815 453.3845681399107 17243.721301823854 5724.2156800329685 3668.0357324331999 28249.898512303829 4656.6306430697441 12328.324892163277 3115.4511980265379 12458.980782553554 8410.5636395961046 1680.112818300724 34841.030030742288 45229.689547538757 5792.0512938052416 12636.696620762348 12106.116644799709 6832.2049257606268 3983.5473974496126
leaf_count=52546 3378 22108 5977 19959 56224 144854 34772 8000 25305 9086 102233 71314 2054 79835 26372 15500 136794 18836 49710 13265 51701 36339 6856 174108 239694 23464 54505 51387 30736 19245
internal_value=0 -0.0435184 0.0600468 -0.0158892 0.0681739 0.00791567 -0.0516334 0.0497662 -0.0349989 -0.109819 -0.113768 0.0200198 -0.0912911 0.0133316 0.00900616 -0.0552915 0.0602534 -0.107001 -0.103422 -0.0300605 -0.0873187 -7.74323e-05 -0.117863 0.0624816 0.095519 -0.0848053 -0.0179812 -0.037401 0.0377881 0.045577
internal_weight=0 199967 147329 141148 139820 84723.4 56424.1 83566.5 38484.7 58819.9 56680 64246.3 7508.56 18677.4 44898 24340.6 64889.1 6790.13 43647.3 20477.1 17939.4 14144.1 6336.74 63090.9 56253.7 18120.4 15752.1 15774.2 12556.4 19348.2
internal_count=1586157 854401 731756 617362 700632 380250 237112 404714 163303 237039 227953 292521 31124 85812 201962 101659 318902 27746 175407 87729 73809 61644 25692 310902 295918 73174 67770 66887 57108 90559
is_linear=0
shrinkage=0.1


Tree=5
num_leaves=31
num_cat=0
split_feature=22 5 5 22 22 42 9 9 9 22 43 42 5 5 5 1 9 1 9 9 9 9 1 22 43 22 22 1 1 43
split_gain=75515.2 23235.1 21768.5 9965.8 5947.32 3750.74 3434.35 2737.56 2556.39 2050.03 1934.9 1642.58 1633.3 1407.06 1238.86 1225.24 1184.31 1135.34 1057.17 1014.26 1007.6 987.579 900.191 882.55 774.221 767.706 624.355 596.856 569.617 554.284
threshold=0.62838389548395213 16.500000000000004 6.5000000000000009 0.78644231765884676 0.37974033444266408 31.03282776612615 0.77037831823239566 0.72461237980769244 0.81821789321789329 0.87829393288146818 57.256578947368432 85.570433436532525 1.0000000180025095e-35 3.5000000000000004 7.5000000000000009 6575.5000000000009 0.78884798643264786 6575.5000000000009 0.83562828838223457 0.50994696709849363 0.45715573876078841 0.7179637831811746 6524.5000000000009 0.45039078813913258 22.359857662023021 0.2339536091396919 0.50393449376866839 4128.5000000000009 6695.5000000000009 40.112086776859506
decision_type=2 2 2 2 2 2 2 2 2 2 2 2 2 2 2 2 2 2 2 2 2 2 2 2 2 2 2 2 2 2
left_child=1 8 5 7 18 13 10 19 11 21 24 14 -7 -2 -1 -13 22 -8 25 -4 -12 -5 -14 -16 -6 -3 -22 -9 -10 -27
right_child=2 4 3 9 6 12 17 27 28 -11 20 15 16 -15 23 -17 -18 -19 -20 -21 26 -23 -24 -25 -26 29 -28 -29 -30 -31
leaf_value=-0.096812601245259769 -0.080798169068306336 -0.11975214683957765 -0.015573988627897092 0.049813963941587464 0.041453580890714881 0.038397798191558821 0.009916896151584453 0.038815437946712397 -0.058793127085556667 0.09543682073830731 -0.074339772938016663 -0.15047699468792253 -0.12811841725677112 0.082144290967553601 -0.10051925498821718 -0.10397486318057787 -0.0062626731314324047 0.056269363867993354 -0.014667762797454393 0.020826717664592386 -0.045857550781253045 0.07855115335483967 -0.067595830112825342 -0.02313067865030545 -0.0069222422104427044 -0.028003027631599293 -0.015325695152386043 0.065704196845489657 0.021196925293841512 -0.076588198435765684
leaf_weight=27884.846934244037 713.15728501975536 3333.7258791327477 10603.15357221663 22587.904903233051 3998.3944231420755 955.86782121658325 18112.565338224173 20522.498246565461 1615.3199826925993 41198.337872937322 5739.2946848273277 9120.8646546155214 7342.0245863944292 2063.0861374288797 2204.1530909836292 14958.104458108544 1280.4844169914722 7460.8650795221329 3274.4718535542488 27528.463144943118 11623.156756982207 25413.10954631865 3693.998235180974 4446.180993154645 19169.104805380106 2969.1605304181576 15805.297036811709 13810.495300218463 1983.2991749793291 11226.81350274384
leaf_count=111985 2989 13346 46952 113271 18070 4439 81202 101048 6787 229740 23497 37358 30259 10166 8960 60135 5557 35971 13611 128213 48374 133956 14857 18776 83268 12280 68829 68192 8588 45481
internal_value=0 -0.0482904 0.0456672 0.0566945 -0.0190788 -0.0654146 -0.00695166 0.0291479 -0.0965185 0.079073 -0.0207479 -0.101541 -0.0875249 0.0402879 -0.0875631 -0.121589 -0.0972976 0.0234399 -0.0668249 0.0107049 -0.0362368 0.0650283 -0.10786 -0.04878 0.00142677 -0.0765676 -0.028264 0.0496315 -0.0147084 -0.0664264
internal_weight=0 164926 177713 161664 102713 16048.6 81908.7 72464.6 62212.8 89199.4 56335.2 58614.2 13272.4 2776.24 34535.2 24079 12316.5 25573.4 20804.2 38131.6 33167.7 48001 11036 6650.33 23167.5 17529.7 27428.5 34333 3598.62 14196
internal_count=1586157 696518 889639 821372 443929 68267 359211 344405 252589 476967 242038 237214 55112 13155 139721 97493 50673 117173 84718 175165 140700 247227 45116 27736 101338 71107 117203 169240 15375 57761
is_linear=0
shrinkage=0.1


Tree=6
num_leaves=31
num_cat=0
split_feature=22 5 5 22 22 9 9 9 2 9 1 43 35 9 5 9 22 5 5 22 1 42 9 42 9 5 43 42 22 43
split_gain=63251.8 26219.4 11661.2 9082.92 5077.65 2978.81 2677.12 2280.18 2242.71 1937.32 1848.83 1323.79 1194.65 1131.64 1116.61 1020.41 940.58 907.567 896.783 888.137 834.051 832.429 716.332 710.712 680.037 677.741 675.849 628.174 612.565 589.087
threshold=0.71220366879927799 8.5000000000000018 4.5000000000000009 0.50393449376866839 0.86319956036121692 0.75011190689346474 0.66681468324452353 0.53161104931405279 11.500000000000002 0.73380664995149247 6613.5000000000009 30.025913621262461 1.5000000000000002 0.39601478944886975 21.500000000000004 0.7916954022988506 0.34156056883329616 9.5000000000000018 10.500000000000002 0.35698552548772816 4203.5000000000009 19.334454007530933 0.51726345534019169 53.053604503801914 0.83562828838223457 18.500000000000004 71.65454545454547 96.097929674663177 0.36323411102172171 99.102851605758602
decision_type=2 2 2 2 2 2 2 2 2 2 2 2 2 2 2 2 2 2 2 2 2 2 2 2 2 2 2 2 2 2
left_child=1 8 12 6 7 11 14 18 -1 28 19 -5 -2 -13 -3 17 -16 23 -4 -8 -7 -14 -6 -9 -12 27 -18 -15 -10 -27
right_child=2 3 4 5 22 20 10 15 9 -11 24 13 21 25 16 -17 26 -19 -20 -21 -22 -23 -24 -25 -26 29 -28 -29 -30 -31
leaf_value=-0.12819354531807714 0.053249122609684445 -0.10829148855523381 -0.067868773823116887 0.037679039866934778 0.055456825341648121 0.017726751821738562 -0.067165864262398331 0.025681959831724291 -0.11320426620115803 -0.025540493493108263 -0.0047794525840214198 -0.054546743252959363 0.072159663560962553 -0.021216066502110029 -0.091003113462481869 0.070422591532435547 -0.024660717192156307 0.047821655395908436 0.01606396685205699 -0.025447155483397779 0.049646428897291955 -0.096821863069818478 0.092020459022879308 -0.083738694546111048 0.050477943895896299 0.0071471570473537905 -0.06513889770672196 -0.1064909570702757 -0.08223358043942916 -0.019511160362089029
leaf_weight=12821.036849677563 663.71079424023628 4860.2665783762932 1444.6333508789539 6298.5350096970797 6145.691956743598 17584.88075350225 7763.3769968748093 1663.5930998176336 8039.58475497365 5564.974132835865 9118.6535286456347 5324.8949535787106 307.28647772967815 3767.3852471113205 5547.5050462037325 22595.694706365466 8892.6756740659475 38699.684703350067 10713.997926384211 14890.568070337176 15315.899350613356 5681.7663363367319 41813.657484665513 922.91479778289795 2946.9248208403587 26354.399882808328 7693.4223671108484 1120.856267362833 31055.651789337397 12092.741623327136
leaf_count=53439 3244 19848 6172 28732 33522 83198 31289 7872 32520 22909 39958 22131 1444 16385 22258 120439 37034 198317 50565 62912 74671 23352 244901 4087 13634 117418 31201 4732 124917 53056
internal_value=0 -0.0339251 0.0549347 -0.0118651 0.0618546 0.00878783 -0.041268 0.0457839 -0.0913279 -0.0807445 -0.0229031 -0.00545877 -0.0740449 -0.0110425 -0.064889 0.0533386 -0.0553584 0.0439886 0.00609146 -0.0397439 0.0325859 -0.0881518 0.0873351 -0.0133614 0.00871674 -0.00569684 -0.0434364 -0.0407693 -0.0886024 -0.00123766
internal_weight=0 207054 130653 149573 124000 87859.6 61713.4 76040.5 57481.2 44660.2 34719.5 54958.8 6652.76 48660.3 26993.9 63881.9 22133.6 41286.2 12158.6 22653.9 32900.8 5989.05 47959.3 2586.51 12065.6 43335.4 16586.1 4888.24 39095.2 38447.1
internal_count=1586157 892242 693915 658457 665875 400323 258134 387452 233785 180346 147793 242454 28040 213722 110341 330715 90493 210276 56737 94201 157869 24796 278423 11959 53592 191591 68235 21117 157437 170474
is_linear=0
shrinkage=0.1


Tree=7
num_leaves=31
num_cat=0
split_feature=22 5 5 22 22 9 1 9 9 9 9 22 2 5 5 35 43 35 22 9 9 42 5 42 22 22 9 42 9 1
split_gain=52709.9 22740.4 9025.56 7634.14 4088.87 3092.6 1903.15 1856.54 1769.49 1762.74 1562.38 1410.41 1230.02 1092.97 1078.87 977.793 959.784 883.676 850.857 757.974 706.5 701.724 680.124 631.465 620.656 619.589 616.098 579.428 540.372 532.667
threshold=0.72597666159310015 9.5000000000000018 4.5000000000000009 0.46583125778331264 0.86319956036121692 0.60005640157924434 6386.5000000000009 0.8285927187566533 0.66681468324452353 0.73380664995149247 0.83339728830903059 0.26641145713629061 11.500000000000002 27.500000000000004 9.5000000000000018 1.5000000000000002 52.291979949874694 1.5000000000000002 0.58239653067239294 0.70549806180874153 0.33356039963669398 57.75524061564176 21.500000000000004 65.1388888888889 0.41760346932760734 0.92586048946472987 0.85247174422156613 99.137509377344358 0.26684118673647478 6695.5000000000009
decision_type=2 2 2 2 2 2 2 2 2 2 2 2 2 2 2 2 2 2 2 2 2 2 2 2 2 2 2 2 2 2
left_child=1 6 15 7 8 17 21 11 14 24 12 -3 18 27 -4 -2 -15 -5 -7 -17 -6 -1 23 -19 -8 -22 -11 -13 -16 -9
right_child=2 3 4 5 20 10 9 29 -10 26 -12 13 -14 16 28 19 -18 22 -20 -21 25 -23 -24 -25 -26 -27 -28 -29 -30 -31
leaf_value=-0.06323203984348473 0.05152440124418154 -0.097963435513239619 -0.043383210555609474 -0.054257823154998108 0.010833721411664865 -0.017276105145994165 -0.09658062028455934 -0.014794998835190623 0.056603560493700536 -0.037012885999844633 0.044490625143760613 -0.059770760086738851 0.03422410953487684 -0.008152938006523688 -0.042316024595283497 -0.10206889021928334 -0.047466924064345689 -0.010897542205859034 0.01154342511390964 -0.016769583042193011 0.076261272952994952 -0.12418470029015423 -0.0032658181201949627 -0.082492992612353697 -0.070417803833142847 0.10100064807028074 0.044075908248342573 -0.12277257887767615 0.03291945834051288 0.041879829694041117
leaf_weight=2255.7176648974419 634.23523138463497 5438.7986636161804 2210.738573089242 6381.8305132985115 1322.5733674019575 16173.718189105392 13902.837025955319 5290.8460428565741 43030.089683011174 4721.3466351777315 16122.64770115912 4837.855548530817 14882.26189686358 9293.4762456268072 997.24236206710339 3979.8262861669064 18715.105526417494 2576.7752890884876 27943.504642352462 1411.1204360574484 28643.884910270572 11611.042378872633 18150.920593559742 2360.3486312180758 26070.394901871681 15656.909797489643 1168.961707264185 2090.6427296251059 22355.383486509323 2415.4361004084349
leaf_count=9397 3173 21975 9506 26698 7421 70279 56956 21967 233750 19206 79501 19891 70336 39142 4621 16635 76245 11090 132186 5921 172972 49795 78548 9872 105392 98030 5000 8511 111013 11128
internal_value=0 -0.0294945 0.0533622 -0.00902856 0.0596548 0.00613287 -0.0818067 -0.0420089 0.044224 -0.0719917 0.0169029 -0.0505935 0.0093641 -0.0432192 0.0233858 -0.0659236 -0.0344222 -0.0213213 0.00097796 -0.0797412 0.0828546 -0.114269 -0.0122172 -0.045126 -0.0795173 0.0850047 -0.0209204 -0.0787813 0.0297066 0.00296901
internal_weight=0 212404 120242 152674 114217 104592 59730.3 48082.2 68593.5 45863.5 75122.1 40375.9 58999.5 34937.1 25563.4 6025.18 28008.6 29469.9 44117.2 5390.95 45623.4 13866.8 23088 4937.12 39973.2 44300.8 5890.31 6928.5 23352.6 7706.28
internal_count=1586157 923115 663042 677369 637313 478510 245746 198859 358890 186554 352302 165764 272801 143789 125140 25729 115387 126208 202465 22556 278423 59192 99510 20962 162348 271002 24206 28402 115634 33095
is_linear=0
shrinkage=0.1


Tree=8
num_leaves=31
num_cat=0
split_feature=22 5 5 22 22 9 9 9 43 9 42 2 5 5 43 22 42 2 22 9 9 1 5 9 9 5 1 22 9 34
split_gain=43920.8 19616.9 7106.62 5767.7 3503.52 2482.96 1913.43 1893.11 1785.39 1599.94 1267.22 1274.39 1155.47 1141.35 1138.62 1105.86 997.293 851.372 823.843 664.859 649.709 625.706 600.436 560.063 535.002 527.377 474.463 462.899 438.456 410.244
threshold=0.73378959170326086 14.500000000000002 4.5000000000000009 0.5093638212807744 0.8715320262925762 0.73856806586132329 0.54229812476081141 0.78263255858349645 36.894008981424783 0.74001140250855191 62.628016547920019 11.500000000000002 6.5000000000000009 7.5000000000000009 79.817794486215547 0.35698552548772816 66.666827118895114 11.500000000000002 0.94127227438206562 0.42426063519813523 0.60976693766937673 6524.5000000000009 1.0000000180025095e-35 0.83562828838223457 0.38891327675348752 42.500000000000007 4203.5000000000009 0.40900642108820556 0.84850429844011377 0.96153846153846168
decision_type=2 2 2 2 2 2 2 2 2 2 2 2 2 2 2 2 2 2 2 2 2 2 2 2 2 2 2 2 2 2
left_child=1 5 18 6 9 10 -3 14 -8 13 12 -12 -1 29 17 25 -7 -5 22 -15 -6 -18 -2 -17 -16 -10 -9 -13 -24 -4
right_child=2 3 4 7 20 16 8 26 15 -11 11 27 -14 19 24 23 21 -19 -20 -21 -22 -23 28 -25 -26 -27 -28 -29 -30 -31
leaf_value=-0.071453645782143527 0.027508807535559007 -0.064886742744347858 -0.025828121837450847 0.0028158215554767363 0.057375329629277064 0.0058162564421484287 0.020837917639908901 0.022208928696374058 -0.088402559047025348 0.060104455479546307 -0.11723150107567788 -0.094887901919157885 -0.014862128514976886 -0.0026134326164750587 -0.058010752165509709 -0.024735625476755993 -0.088429188623221577 0.035540619061535834 0.059678121999547577 0.038311151864471343 0.087500883251334094 -0.02580526944379833 -0.08915257015925887 0.013226922963345137 -0.010114214604827547 -0.041662902826478991 0.050074097791117093 -0.067224449298787001 0.060658573105560248 -0.1496434723423978
leaf_weight=15238.109113022685 557.11975148320198 12057.903572529554 1511.7626217007637 26867.094989359379 9380.2370355129242 5038.4889086931944 8638.9706855863333 13817.732094690204 3298.252486243844 30023.655322119594 11346.903721094131 9426.8668605536222 4727.1538731753826 4550.8104237169027 2622.9991786926985 21358.142962649465 2862.6123875826597 11290.964887067676 537.01358112692833 31089.409915789962 30231.298364147544 3604.3575792759657 4366.7665827721357 4750.6025387197733 21028.338354974985 9005.1722627878189 10955.166478052735 16880.332570910454 204.51031282544136 325.16310268640518
leaf_count=62620 2778 49025 6564 122394 57142 21886 38431 68102 13392 171403 50157 39264 19908 21700 10738 89104 12239 52328 2499 163755 198280 14911 18394 21205 94002 36463 56404 68864 845 1360
internal_value=0 -0.0260803 0.0509849 -0.00526501 0.0567581 -0.0699517 -0.0293459 0.0111748 -0.0202377 0.0429036 -0.0784208 -0.0892195 -0.0580545 0.0291237 0.00181354 -0.0294757 -0.0275386 0.0124991 -0.0581652 0.0330856 0.080367 -0.0535258 -0.070505 -0.0178282 -0.0154261 -0.0541927 0.0345316 -0.0771373 -0.0824503 -0.0477453
internal_weight=0 214816 112778 145691 107112 69124.8 59109 86582.3 47051.1 67500.8 57619.4 37654.1 19965.3 37477.1 61809.4 38412.2 11505.5 38158.1 5665.41 35640.2 39611.5 6466.97 5128.4 26108.7 23651.3 12303.4 24772.9 26307.2 4571.28 1836.93
internal_count=1586157 941437 644720 651588 620204 289849 247620 403968 198595 364782 240813 158285 82528 193379 279462 160164 49036 174722 24516 185455 255422 27150 22017 110309 104740 49855 124506 108128 19239 7924
is_linear=0
shrinkage=0.1


Tree=9
num_leaves=31
num_cat=0
split_feature=22 5 5 22 22 42 9 9 9 43 22 1 42 5 1 5 9 9 9 5 34 35 9 43 1 42 22 1 9 22
split_gain=36919.8 11072.2 11027.5 6667.47 2566.85 2116.94 1790.5 1713.43 1525.52 1312.28 1202.64 1130.29 991.91 938.658 1011.89 905.115 773.485 759.756 748.484 734.253 722.46 705.357 659.236 562.788 558.038 551.206 549.242 527.629 504.697 490.285
threshold=0.6224318658280924 18.500000000000004 6.5000000000000009 0.81631608339538364 0.37974033444266408 31.03282776612615 0.71975009997951644 0.60005640157924434 0.67684682915654182 28.992857142857144 0.91333096127616686 6695.5000000000009 94.722228794510841 1.0000000180025095e-35 6524.5000000000009 2.5000000000000004 0.70004599816007362 0.83562828838223457 0.35097745797249114 3.5000000000000004 0.96153846153846168 1.5000000000000002 0.68712638661296344 25.716898378020527 6575.5000000000009 47.234354298184094 0.41760346932760734 4128.5000000000009 0.25027233115468411 0.39838231943495106
decision_type=2 2 2 2 2 2 2 2 2 2 2 2 2 2 2 2 2 2 2 2 2 2 2 2 2 2 2 2 2 2
left_child=1 8 5 6 22 15 18 21 11 -9 16 -1 26 -7 19 -2 28 -11 -4 -15 25 -6 -3 -20 -14 -21 -10 -8 -5 -13
right_child=2 4 3 10 7 13 27 9 12 17 -12 29 24 14 -16 -17 -18 -19 23 20 -22 -23 -24 -25 -26 -27 -28 -29 -30 -31
leaf_value=-0.10608030334499695 -0.098255667315500339 -0.064565828105282316 -0.032909919579645973 -0.049496954677912597 -0.060677074910699083 0.034615550268150365 0.030154122528256683 0.051532016400705385 -0.058752617993704417 -0.0065043593920219751 0.088568015426077562 -0.085928193999484662 -0.10643624897691968 -0.12194218382668934 -0.03025319087073099 0.062923487659992783 0.069648621847175449 0.024302991005920916 0.059716100348685221 0.017793008720868024 -0.14433239573839923 -0.018305590020669567 -0.02831067163090939 0.011217201157138059 -0.043140205758090855 -0.069638206509182829 -0.010837219887061836 0.053380436931723597 0.045682973009463286 -0.060085107227055581
leaf_weight=10224.873604536057 415.78494894504547 9112.4161359518766 3670.2144879698753 574.73344992101192 5071.7717860639095 923.30023691058159 24951.114850640297 5440.3254908174276 3392.71208794415 39245.155393481255 18442.735326617956 10688.058245331049 2928.3817127346992 3898.2744345068932 4190.0881469249725 2149.9700704962015 24945.491608381271 10056.320628240705 2550.2946739047766 1102.1258700340986 826.38678798079491 17433.807211384177 11154.800247490406 38709.256855234504 2656.3511168807745 2085.6008226126432 8112.9255214631557 16086.428397908807 18167.359897375107 23442.580350503325
leaf_count=45669 1724 36984 15884 3019 20498 4486 133724 26801 14004 172006 128877 45432 12804 17284 17059 11475 159695 48089 12291 5162 3542 72965 45717 184941 10947 9084 34572 87476 107000 96946
internal_value=0 -0.033887 0.0337744 0.0421961 -0.012937 -0.0462199 0.024158 -0.00462658 -0.0671346 0.00492284 0.0671548 -0.0769152 -0.0417506 -0.0625735 -0.0699881 0.0368041 0.0581152 -0.000220398 0.0103654 -0.0910301 -0.0610102 -0.0278543 -0.0446115 0.014215 -0.0763298 -0.0394097 -0.0249662 0.0392587 0.0427642 -0.0681779
internal_weight=0 158960 163689 148098 97514.6 15591.5 85967.3 77247.4 61445.9 54741.8 62130.3 44355.5 17090.4 13025.8 12102.5 2565.76 43687.6 49301.5 44929.8 7912.39 4014.11 22505.6 20267.2 41259.6 5584.73 3187.73 11505.6 41037.5 18742.1 34130.6
internal_count=1586157 683434 902723 832907 423060 69816 434316 340359 260374 246896 398591 188047 72327 56617 52131 13199 269714 220095 213116 35072 17788 93463 82701 197232 23751 14246 48576 221200 110019 142378
is_linear=0
shrinkage=0.1


Tree=10
num_leaves=31
num_cat=0
split_feature=22 5 22 5 22 9 2 9 1 9 9 5 43 5 9 43 9 9 5 5 1 34 9 5 9 22 22 35 42 35
split_gain=30977.2 14659.4 5254.31 4673.88 2743.23 1802.92 1797.94 1663.27 1522.71 1467.68 1174.64 1121.6 913.974 834.91 744.634 742.582 733.912 723.94 659.884 594.899 533.186 511.889 501.742 492.427 487.828 487.252 484.247 431.376 428.118 417.132
threshold=0.74718041127835499 8.5000000000000018 0.52790700089302411 3.5000000000000004 0.89116499442586405 0.54229812476081141 11.500000000000002 0.77037831823239566 6613.5000000000009 0.53161104931405279 0.84850429844011377 33.500000000000007 22.781204868991132 1.0000000180025095e-35 0.55561620572537618 66.044211040547154 0.50588928967813551 0.82029110122496796 8.5000000000000018 7.5000000000000009 2143.5000000000005 0.96153846153846168 0.31556466302367947 5.5000000000000009 0.81618267037000314 0.5539300901286407 0.21460006257169675 1.5000000000000002 58.196676587301596 1.5000000000000002
decision_type=2 2 2 2 2 2 2 2 2 2 2 2 2 2 2 2 2 2 2 2 2 2 2 2 2 2 2 2 2 2
left_child=1 6 5 13 9 -3 23 12 11 18 14 -7 -4 -2 -8 24 -14 19 -5 21 -9 -11 -6 27 -10 -16 -13 -1 -25 -20
right_child=3 2 7 4 22 8 10 20 15 17 -12 26 16 -15 25 -17 -18 -19 29 -21 -22 -23 -24 28 -26 -27 -28 -29 -30 -31
leaf_value=0.046876001963715656 0.040147825733960529 -0.056505960209469387 0.049943345370641976 -0.06286828446918856 -0.0032381659612010331 -0.060869356224994391 -0.069037562625737181 0.0099124750209967673 0.0058750457388164019 0.0077256220755754328 0.042328022618804681 -0.073559387255209607 -0.022045137597763807 -0.084871095815003988 -0.051358537715007237 -0.029047773029004118 0.0044507824977213254 0.066175401543635506 -0.018351201728693346 0.042723976003734815 0.039399505352115366 -0.13580575249040475 0.079234784249112303 -0.013762440977583787 0.050030571208716838 -0.012653941388770525 -0.016323849616422498 -0.11403188614418394 -0.088055048151754994 0.027837203148683765
leaf_weight=169.91926470398903 646.58704476058483 15025.142479717731 3646.6214922517538 1208.805011883378 757.74767968058586 8921.0864919126034 24368.74016058445 8839.179308578372 12672.16780397296 1762.0296357274055 1209.1205194145441 1573.2889299541712 13576.834620699286 3072.7192188203335 13823.034783989191 5177.4811417609453 45451.456554085016 14168.040631234646 2676.9885591715574 39348.386307239532 20023.743380606174 289.26582106947899 27828.379124760628 1051.8943183720112 3117.6118117421865 4253.4211030453444 24459.239757791162 8554.7867174297571 2953.7161267399788 7252.5166621357203
leaf_count=781 3355 61566 17544 5272 4597 37252 103304 44968 55177 8390 5164 6455 57564 13529 57432 22143 210401 88749 13591 232074 104785 1278 200990 4487 15267 17338 101857 40525 13636 36686
internal_value=0 -0.0205712 -0.00532569 0.0468379 0.0511303 -0.025752 -0.0645043 0.0105056 -0.0174888 0.0400233 -0.0548613 -0.0302693 0.00135805 -0.063137 -0.0576299 0.00381696 -0.00164343 0.0466642 0.00689228 0.039987 0.0303692 -0.0125146 0.0770486 -0.0975718 0.0145933 -0.0422513 -0.0197829 -0.110898 -0.0685454 0.0153848
internal_weight=0 218868 162484 99011.5 95292.2 70946 56384.6 91537.8 55920.9 66706 43654.3 34953.6 62674.9 3719.31 42445.2 20967.3 59028.3 55567.7 11138.3 41399.7 28862.9 2051.3 28586.1 12730.3 15789.8 18076.5 26032.5 8724.71 4005.61 9929.51
internal_count=1586157 977646 734979 608511 591627 299717 242667 435262 238151 386040 183238 145564 285509 16884 178074 92587 267965 330491 55549 241742 149753 9668 205587 59429 70444 74770 108312 41306 18123 50277
is_linear=0
shrinkage=0.1


Tree=11
num_leaves=31
num_cat=0
split_feature=22 5 22 5 22 9 2 9 43 5 22 9 9 22 43 9 9 5 1 5 34 42 42 43 35 9 43 9 7 10
split_gain=25803 12201.9 4336.26 3916.86 2295.97 2239.72 1626.71 1287.75 1304.21 1175.49 1102.68 1067.71 1003.82 779.587 679.785 642.1 596.094 567.095 531.555 479.363 552.003 456.953 450.908 431.269 401.173 396.099 390.4 382.586 374.642 365.176
threshold=0.74718041127835499 8.5000000000000018 0.42072814292499366 5.5000000000000009 0.89278872468527648 0.80008190008190028 11.500000000000002 0.34289855253280771 22.781204868991132 30.500000000000004 0.57959573612228488 0.76613394365643794 0.60755265467310238 0.93173642903858733 52.291979949874694 0.42426063519813523 0.85757423786511056 22.500000000000004 4128.5000000000009 4.5000000000000009 0.89444444444444449 93.818277310924387 82.222699093943746 99.102851605758602 1.5000000000000002 0.51726345534019169 36.320020481310813 0.80008190008190028 93.500000000000014 0.63581168232909546
decision_type=2 2 2 2 2 2 2 2 2 2 2 2 2 2 2 2 2 2 2 2 2 2 2 2 2 2 2 2 2 2
left_child=1 6 9 13 11 7 19 -4 -9 -3 17 15 -8 27 -11 -5 -14 21 -7 24 22 -10 -21 29 -1 -6 -20 -2 -12 -19
right_child=3 2 5 4 25 18 12 8 10 14 28 -13 16 -15 -16 -17 -18 23 26 20 -22 -23 -24 -25 -26 -27 -28 -29 -30 -31
leaf_value=0.041894171784861815 -0.056312880065357285 -0.070634815992734731 -0.049293847909707561 -0.0052059681194873836 0.042974179745029345 0.01511776493724936 -0.061187326817714521 0.044926403936269767 -0.024376529113589101 -0.0017093829158474603 -0.0066753784910914453 0.055843040436780927 -0.034511150382734494 0.052401870268976553 -0.037222094407271533 0.033686698585074552 0.045023818339077946 0.0052214683723075745 0.075376279637160926 -0.0074279933447430379 -0.10834761368523463 -0.082357522392681473 -0.080823134431943167 -0.02796097107886808 -0.11324172442196825 0.079362244936221349 0.033758404728298164 0.032409583268492324 0.012270334931259206 -0.021593403824716455
leaf_weight=171.04833929240704 4816.6488928049803 7887.580704420805 5793.0519618988037 4814.2050642967224 3463.6911114454269 14948.925199523568 28097.359779536724 5869.9072250425816 3929.0507841706276 7731.4961662441492 15186.362341925502 23539.027972400188 14006.234472364187 917.4553602039814 17799.511823058128 35895.995189324021 1010.2913094460964 15657.308378398418 2841.6689481288195 1681.0355634689331 2212.1717807501554 2078.2108381092548 1667.2339681237936 10432.26281093061 6540.3529003411531 21942.387536585331 10898.705326169729 540.57637712359428 33377.620557188988 7516.8814528733492
leaf_count=781 22020 33076 23873 23696 23337 74692 120902 28426 16550 32454 70310 152630 57969 4816 72669 208063 4367 67715 15703 7357 10594 8757 8085 43540 32612 171511 57167 2438 158190 31857
internal_value=0 -0.0186584 -0.00480174 0.0436073 0.048953 0.003542 -0.0591756 -0.00353421 -0.000715556 -0.0368923 -0.0037539 0.0388899 -0.0500323 -0.0327735 -0.0264679 0.0290874 -0.0291601 -0.0161356 0.0281677 -0.0912981 -0.0695846 -0.044435 -0.0439743 -0.011077 -0.109288 0.0744013 0.0423655 -0.0473602 0.00634585 -0.00347632
internal_weight=0 217334 161949 95930 89655.3 128530 55385.7 99840.7 94047.6 33418.6 88177.7 64249.2 43113.9 6274.68 25531 40710.2 15016.5 39613.7 28689.3 12271.8 5560.44 6007.26 3348.27 33606.5 6711.4 25406.1 13740.4 5357.23 48564 23174.2
internal_count=1586157 977646 734979 608511 579237 596780 242667 449218 425345 138199 396919 384389 183238 29274 105123 231759 62336 168419 147562 59429 26036 25307 15442 143112 33393 194848 72870 24458 228500 99572
is_linear=0
shrinkage=0.1


Tree=12
num_leaves=31
num_cat=0
split_feature=22 5 5 22 22 42 5 43 1 9 5 5 9 2 34 22 9 9 9 22 42 9 42 9 9 7 22 9 9 12
split_gain=21548.6 10503.9 3322.86 3144.75 2192.1 1883.53 1491.81 1356.65 1278.31 1191.42 931.842 918.114 888.006 788.495 758.109 741.922 677.628 626.784 534.824 533.921 532.884 460.19 459.429 424.01 415.936 374.415 357.814 343.385 342.522 334.8
threshold=0.7545621045621046 15.500000000000002 3.5000000000000004 0.54582652755091854 0.90377492877492893 62.628016547920019 6.5000000000000009 46.419081632653068 6524.5000000000009 0.7179637831811746 8.5000000000000018 466.50000000000006 0.57472552961187573 11.500000000000002 0.26136363636363641 0.25045454545454554 0.65035321457339823 0.75218978568871164 0.84620115431923559 0.43803481313537634 38.325608194622284 0.59347503547929314 95.513639266490301 0.8623056226198289 0.23230334844508074 26.500000000000004 0.83307045215562581 0.8666977322149737 0.61430221049158706 0.63655941762427171
decision_type=2 2 2 2 2 2 2 2 2 2 2 2 2 2 2 2 2 2 2 2 2 2 2 2 2 2 2 2 2 2
left_child=1 5 14 7 9 6 -1 17 22 10 20 13 -9 18 -2 -14 -10 -3 25 -8 -4 -13 -7 29 -12 -5 -11 -18 -6 -17
right_child=2 3 4 11 28 8 19 12 16 26 24 21 15 -15 -16 23 27 -19 -20 -21 -22 -23 -24 -25 -26 -27 -28 -29 -30 -31
leaf_value=-0.044639860030221211 0.031635315695989555 -0.0068668251628354205 0.023830331847608854 -0.018332154788277596 0.05183418645416276 -0.065677185373773497 -0.053031270248950713 -0.049047245611883131 -0.059007759092456605 0.040426920749635643 -0.045353350305284972 -0.0313659983901005 -0.064104029918151048 0.041815616277625658 -0.08048701891321669 -0.010519795978894388 -0.031276600416830773 0.03102019915409391 0.037590853929176056 0.016458473541437969 -0.064623895930900344 0.0035594569988182702 -0.10194504960625073 0.014739674120278989 0.030336200984048284 0.011522797891545969 0.061411583796459328 0.043546975815849161 0.081684571022951888 -0.032082445808459495
leaf_weight=16863.259460344911 781.18742509186268 13651.389289453626 1099.6540967524052 4712.1640536338091 5139.5004652440548 6219.2872014343739 1297.4065641760826 12135.485439836979 21088.992152035236 17430.512509778142 744.27700044214725 5821.5848642885685 3219.0677962303162 11189.569784149528 2644.4069622308016 20517.248013794422 7613.1636965423822 6420.0515301376581 7268.6098441332579 7482.8091571927071 1789.2671335488558 10719.592973217368 7967.3084048032761 4494.0371878892183 29615.488712310791 38700.608007207513 15221.215923771262 667.08736482262611 15250.704859130085 11094.623143568635
leaf_count=72965 3921 58409 5652 21604 37726 29776 5455 49490 92133 109371 3565 24602 13430 56302 12138 86175 31610 30836 39707 34135 8099 53667 40204 20197 173282 186419 109611 2947 126559 46170
internal_value=0 -0.01651 0.0416723 -0.00163697 0.0455068 -0.0487374 -0.0272358 -0.0167995 -0.0613964 0.0366411 0.0233165 0.0121951 -0.0254002 0.01779 -0.0549182 -0.0181029 -0.0494898 0.00525172 0.0124856 0.00619034 -0.0309542 -0.00873238 -0.0860455 -0.0140016 0.0284807 0.00828224 0.0502093 -0.0252485 0.0741606 -0.0180875
internal_weight=0 219143 89716.2 149944 86290.6 69199.3 25643.5 71531.9 43555.8 65900.4 33248.7 78412.1 51460.5 61871 3425.59 39325 29369.2 20071.4 50681.4 8780.22 2888.92 16541.2 14186.6 36105.9 30359.8 43412.8 32651.7 8280.25 20390.2 31611.9
internal_count=1586157 996233 589924 687008 573865 309225 112555 304707 196670 409580 190598 382301 215462 304032 16059 165972 126690 89245 247730 39590 13751 78269 69980 152542 176847 208023 218982 34557 164285 132345
is_linear=0
shrinkage=0.1


Tree=13
num_leaves=31
num_cat=0
split_feature=22 5 5 22 22 42 43 42 9 9 1 22 12 7 1 35 9 5 9 9 5 43 34 22 22 9 9 9 22 9
split_gain=18117.6 6115.74 4764.33 3703.69 1532.62 1466.19 1218.57 1180.29 1157.85 1133.57 906.201 773.374 748.483 699.906 697.437 708.934 658.776 538.419 524.93 524.672 501.223 465.108 449.883 426.838 410.257 396.684 394.219 360.911 350.723 326.071
threshold=0.64837673741783342 20.500000000000004 6.5000000000000009 0.84161802633365024 0.35264782565918934 84.942803154781487 71.65454545454547 31.03282776612615 0.83339728830903059 0.71434317894494892 6575.5000000000009 0.93173642903858733 0.68936513629842189 93.500000000000014 6524.5000000000009 1.5000000000000002 0.77957324013444218 2.5000000000000004 0.70004599816007362 0.62506952169076768 2.5000000000000004 45.112918660287086 0.88194444444444453 0.19123998606757231 0.36323411102172171 0.50018754688672173 0.68712638661296344 0.19678585258809864 0.40240571236881206 0.2917663476874004
decision_type=2 2 2 2 2 2 2 2 2 2 2 2 2 2 2 2 2 2 2 2 2 2 2 2 2 2 2 2 2 2
left_child=1 5 7 8 23 9 12 17 13 25 -7 18 16 -4 15 -9 29 -2 27 -8 -17 -15 -22 -3 -12 -1 -25 -5 -11 -6
right_child=2 4 3 11 6 10 19 14 -10 28 24 -13 -14 21 -16 20 -18 -19 -20 -21 22 -23 -24 26 -26 -27 -28 -29 -30 -31
leaf_value=-0.054490010386047227 -0.076717283404479392 -0.081166755418300332 0.0017425659931092298 -0.074276689568150547 -0.05216105354495712 -0.089284543848065251 -0.029184123666603851 0.039680807376228304 0.048038067900522986 -0.040698404642576534 -0.077193974103367133 0.082161343272165774 -0.013835840274772984 0.037645962341175176 -0.0064506033137114935 -0.11408462587604087 0.039947293442327086 0.05507068797386612 0.061290739966765019 -0.0057373746933198572 -0.039685698909461532 0.015976065883464511 -0.12280929567454746 -0.048747453918421391 -0.040267144218021064 -0.031576398233719376 -0.014429944255392166 0.037948308270137635 0.0073678915007294767 0.010702906353526383
leaf_weight=15241.183693692088 369.45127700269222 1822.6843496710062 23460.962386742234 292.5899503827095 852.37965904176235 9422.1437150686979 14534.855878859758 618.56088174879551 13254.006756782532 1927.1329609900713 4081.4497741609812 9752.2847253605723 10443.184987097979 14695.18025457859 3187.7625024020672 1997.495337292552 9029.0171904265881 1926.6559846103191 18187.952277988195 27793.436209768057 3775.8103025406599 30383.188726261258 786.77687947452068 6007.6775357276201 11446.376843869686 14982.614427596331 7559.3262839764357 13913.799970075488 7151.0762932151556 25784.147095218301
leaf_count=67916 1599 7762 120795 1604 3501 48014 59433 3253 83055 8000 18501 85194 46715 81649 13322 10081 46204 11313 144265 124149 18098 164530 3698 24934 49569 65405 31025 96964 31650 113959
internal_value=0 -0.0216113 0.0274217 0.033391 -0.00660553 -0.0458594 -0.00153725 -0.0310058 0.0209821 -0.0338235 -0.0648188 0.0574728 0.00970963 0.0157501 -0.0453745 -0.0626592 0.016604 0.0338656 0.0500404 -0.0137886 -0.072309 0.0230403 -0.0540196 -0.0357305 -0.0499733 -0.0431312 -0.0296263 0.035637 -0.00283568 0.00869123
internal_weight=0 168079 136602 123940 103827 64252 88437 12662.5 81793.3 39302 24950 42146.6 46108.7 68539.3 10366.4 7178.64 35665.5 2296.11 32394.3 42328.3 6560.08 45078.4 4562.59 15389.7 15527.8 30223.8 13567 14206.4 9078.21 26636.5
internal_count=1586157 746737 839420 778056 457682 289055 393961 61364 450029 172971 116084 328027 210379 366974 48452 35130 163664 12912 242833 183582 31877 246179 21796 63721 68070 133321 55959 98568 39650 117460
is_linear=0
shrinkage=0.1


Tree=14
num_leaves=31
num_cat=0
split_feature=22 5 22 5 22 2 9 9 22 1 9 10 9 9 34 9 43 43 22 9 5 5 35 5 35 42 5 5 9 5
split_gain=15261.7 7733.98 3031.28 2241.34 1692.91 1543.03 1302.26 1036.16 1007.64 885.3 876.136 778.079 740.786 602.49 564.146 530.606 513.064 511.423 474.356 458.202 408.211 392.926 409.986 353.526 436.422 351.141 328.023 310.944 307.731 307.396
threshold=0.76705678946668454 7.5000000000000009 0.49253689780005577 3.5000000000000004 0.91521640435835361 11.500000000000002 0.68027607775899168 0.50018754688672173 0.2766417050691245 4165.5000000000009 0.53867154894868652 0.53153411438961917 0.78740708110786872 0.2917663476874004 0.26136363636363641 0.81821789321789329 25.243134328358213 46.419081632653068 0.45577665868087819 0.85047874289902892 33.500000000000007 10.500000000000002 1.5000000000000002 17.500000000000004 1.5000000000000002 78.632122507122531 1.0000000180025095e-35 38.500000000000007 0.85757423786511056 8.5000000000000018
decision_type=2 2 2 2 2 2 2 2 2 2 2 2 2 2 2 2 2 2 2 2 2 2 2 2 2 2 2 2 2 2
left_child=1 5 8 14 7 -1 13 21 20 28 -10 19 18 -4 -2 29 -15 -11 -7 -12 -3 -5 -23 25 -25 -18 -20 -13 -8 -9
right_child=3 2 6 4 -6 12 9 15 10 17 11 27 -14 16 -16 -17 23 -19 26 -21 -22 22 -24 24 -26 -27 -28 -29 -30 -31
leaf_value=-0.081121575041460989 0.030462119617448359 -0.093493885788558051 -0.047767644887632868 -0.047712463509403356 0.072185577636523654 -0.054190186497644593 0.001045704653060186 0.0022991244274019416 -0.041847659127098188 0.049036382173847787 -0.0010957007329520613 -0.040830939862225746 0.010881871092594635 0.032144795374504487 -0.071644843913216932 0.056829742990694355 -0.010398129729681068 0.02020403376616944 0.038988344252518264 0.045622568798489617 -0.041167220971531131 -0.024651725137671388 0.026633861233736691 -0.021181447043503217 0.0038987084900387057 -0.063016217124328186 -0.033992255207478166 -0.014581963281933267 0.025677452660679691 0.036134006077716323
leaf_weight=10581.726033061743 711.62105862796307 2103.3805099129677 3103.8961244374514 1331.9261463135481 14448.656200408936 17290.454092428088 27358.984849736094 2895.8992013558745 10719.073310628533 9191.9055784493685 17078.551953420043 6768.433106854558 2851.7874635607004 3965.3726171404123 2258.1960282325745 13167.944710165262 3585.6226385384798 18602.568849518895 635.36613649129868 2393.5688882470131 5119.6265417039394 2225.4198479652405 5203.3689645379782 9076.606488019228 29449.370560601354 1962.3810807317495 20070.937351286411 13542.471085727215 6226.3003499507904 36896.529764898121
leaf_count=57141 3679 9565 12824 6463 130350 79040 136051 15952 44504 51096 72632 28458 11854 19037 10916 99016 15843 97030 2714 11406 21623 12141 28925 39355 132614 8673 86555 56291 33900 250509
internal_value=0 -0.0131058 -0.00283967 0.03805 0.041373 -0.0470896 0.00671759 0.0341599 -0.0214695 0.0165375 -0.0164729 -0.00963601 -0.0382737 -0.00506785 -0.0471782 0.0394296 -0.00230895 0.0297392 -0.041963 0.00464704 -0.056405 0.002303 0.0112704 -0.00540879 -0.0020101 -0.0290096 -0.0317529 -0.0233292 0.00561213 0.0336717
internal_weight=0 221678 170248 79139.6 76169.7 51430.3 112523 61721.1 57725.1 61379.8 50502.1 39783 40848.5 51143.2 2969.82 52960.4 48039.4 27794.5 37996.8 19472.1 7223.01 8760.71 7428.79 44074 38526 5548 20706.3 20310.9 33585.3 39792.4
internal_count=1586157 1028206 790902 557951 543356 237304 546423 413006 244479 318077 213291 168787 180163 228346 14595 365477 215522 148126 168309 84038 31188 47529 41066 196485 171969 24516 89269 84749 169951 266461
is_linear=0
shrinkage=0.1


Tree=15
num_leaves=31
num_cat=0
split_feature=22 22 5 5 43 9 42 9 9 1 1 5 22 9 43 2 43 42 22 1 22 5 22 9 5 33 9 9 12 0
split_gain=12932.1 4144.17 3928.28 3060.14 1191.99 1063.28 1063.04 1025.97 757.807 740.629 727.492 684.556 593.033 537.444 537.242 514.899 503.41 523.184 453.613 445.197 430.876 419.836 387.154 370.237 346.592 320.815 304.148 295.899 290.115 275.628
threshold=0.60765598925475206 0.85071250084419547 21.500000000000004 7.5000000000000009 52.291979949874694 0.75511154182343343 97.457908031755863 0.66943007852098779 0.56864208369915137 6735.5000000000009 3880.5000000000005 7.5000000000000009 0.36323411102172171 0.59093477144324613 72.739412761151911 11.500000000000002 21.688486842105267 72.750000000000014 0.34758686817953527 2143.5000000000005 0.93173642903858733 587.50000000000011 0.77489976198463295 0.81821789321789329 16.500000000000004 1.5000000000000002 0.46877953686200385 0.16698352344740178 0.68401962934395966 3672.5000000000005
decision_type=2 2 2 2 2 2 2 2 2 2 2 2 2 2 2 2 2 2 2 2 2 2 2 2 2 2 2 2 2 2
left_child=2 3 6 10 16 14 8 11 -1 -8 -2 25 -6 -12 15 22 -4 -18 -10 -7 -9 28 24 -20 -5 -3 -16 -13 -14 -21
right_child=1 7 4 5 12 19 9 20 18 -11 13 27 21 -15 26 -17 17 -19 23 29 -22 -23 -24 -25 -26 -27 -28 -29 -30 -31
leaf_value=-0.046625308263748985 -0.070768611250396171 0.017026072519845319 0.040913506719913346 -0.022351712703829747 -0.036184602515134168 0.016000875593739815 -0.087143572096604366 0.053545106881939156 -0.055521305923558854 -0.044062145969286537 -0.040663743253345833 -0.068282540234733596 0.00032684092880661155 0.0080744866959701241 -0.024725958260936348 0.045607109132702051 -0.011884575567147296 0.017828450595291288 -0.019329256463614219 0.043103358610901116 0.084147521756079147 -0.026903673161994286 0.026108457527222264 0.021868596916881488 0.0098630911490773573 -0.057822417383100927 0.0029888594864887312 0.039350382627314086 -0.019868071815752963 0.011518290259873014
leaf_weight=20393.396094664931 3899.1538513302803 1094.1029411554337 4257.2207769155502 4104.1540265828371 11500.984974220395 13646.13347427547 7177.466876283288 18016.434661000967 2991.6710878908634 8986.8172433823347 5140.4127862453461 260.73340651392937 25338.164779186249 4041.2713187485933 4986.3975383937359 5175.6788985282183 11393.098885953426 12349.368105620146 15249.618602499366 20056.837834998965 6178.7568781152368 12144.62654517591 12130.053781509399 2545.4930892884731 17930.116717487574 1201.5234981402755 19230.834924608469 12530.502095542848 9890.130275323987 3204.2504652887583
leaf_count=94162 19760 6327 21393 19178 48176 84573 38877 152256 13342 40477 23959 1534 109641 18102 22011 25962 51094 55588 66579 124194 61094 51893 71667 11562 88006 6667 98447 97088 42609 19939
internal_value=0 0.0206019 -0.0211462 0.0109162 -0.00773727 0.0168399 -0.0414599 0.0485985 -0.0329296 -0.0631917 -0.03458 0.0281324 -0.0158153 -0.0192119 0.00900041 0.0162139 0.00924817 0.00357031 -0.0194931 0.0303403 0.0613601 -0.0108702 0.0117611 -0.0134361 0.00386269 -0.0221494 -0.0027177 0.0371564 -0.00534276 0.0387525
internal_weight=0 152827 144218 113545 86873.6 100464 57344.5 39282.1 41180.2 16164.3 13080.8 15086.9 58873.9 9181.68 63557.2 39340 27999.7 23742.5 20786.8 36907.2 24195.2 47372.9 34164.3 17795.1 22034.3 2295.63 24217.2 12791.2 35228.3 23261.1
internal_count=1586157 940764 645393 615798 380394 553977 264999 324966 185645 79354 61821 111616 252319 42061 325271 204813 128075 106682 91483 228706 213350 204143 178851 78141 107184 12994 120458 98622 152250 144133
is_linear=0
shrinkage=0.1


Tree=16
num_leaves=31
num_cat=0
split_feature=22 5 22 5 2 22 9 9 22 9 9 7 9 43 43 42 5 1 9 42 5 34 35 5 1 22 5 9 1 35
split_gain=10816.8 5672.94 2283.71 1498.9 1300.79 1287.57 989.807 898.837 876.369 776.825 695.343 653.418 595.596 581.717 538.815 465.05 435.494 418.612 398.872 378.733 372.52 479.797 397.248 372.095 383.292 330.91 327.89 309.027 298.074 297.291
threshold=0.78267814974301997 7.5000000000000009 0.53507153492587567 3.5000000000000004 11.500000000000002 0.91967544316996885 0.81821789321789329 0.83562828838223457 0.29867191631897522 0.66681468324452353 0.38337651122625221 29.500000000000004 0.67684682915654182 22.781204868991132 21.688486842105267 127.84538950715422 38.500000000000007 8987.5000000000018 0.25027233115468411 103.72263814616757 4.5000000000000009 0.89444444444444449 1.5000000000000002 491.50000000000006 2548.5000000000005 0.35698552548772816 40.500000000000007 0.8666977322149737 2110.5000000000005 1.5000000000000002
decision_type=2 2 2 2 2 2 2 2 2 2 2 2 2 2 2 2 2 2 2 2 2 2 2 2 2 2 2 2 2 2
left_child=1 4 6 15 20 9 8 11 26 18 -10 -4 25 -13 -12 -2 19 -8 -5 -16 22 -22 -1 24 -15 -6 -3 -14 -11 -18
right_child=3 2 7 5 12 -7 17 -9 10 28 14 13 27 23 16 -17 29 -19 -20 -21 21 -23 -24 -25 -26 -27 -28 -29 -30 -31
leaf_value=0.043417210159841901 -0.061284978849957622 -0.081890230840677758 -0.018540756246086681 -0.045304705042396254 -0.060706099764350145 0.06780453954697109 0.0050051310020697111 0.031197506280238759 -0.053057354065659035 0.030543049997191742 0.027589791873260716 0.046344454912306432 -0.0150776035988191 -0.002302363780335426 -0.01962207375702664 0.042252894217717642 -0.029634548134821165 0.074492790646280976 0.019484317166575414 -0.056032210400454564 -0.023220995019935776 -0.09199177364907174 -0.092255391906009121 -0.0086313104090476461 0.015035496108000347 -0.033507565853722006 -0.037361032961396055 0.048701495257899963 0.049579263411000073 -0.004337608415041716
leaf_weight=224.05714158713818 2052.6052729189396 2563.3919033110142 11047.346122950315 997.48473489284515 5430.9406682401896 11865.86789046973 11948.711954846978 14349.445471897721 4640.8829535543919 15019.350652523339 3129.351081609726 3667.693609520793 8319.5913608670235 19254.490293890238 10061.314218446612 550.06673735380173 5647.3642375320196 934.77887201309204 20060.540145151317 3989.7103741914034 2715.9336170554161 1619.3953307121992 5865.2107108682394 14769.192635625601 37749.581219598651 25365.626602321863 4659.340316966176 836.03700861334801 18184.449010573328 26190.636850684881
leaf_count=1106 10166 12132 50868 4873 26888 118744 53937 85038 19431 117612 14568 19817 34763 95694 42590 3000 23235 4920 126522 17437 13782 9186 35621 70318 186054 115267 19983 3654 139365 109586
internal_value=0 -0.0102923 -0.00176282 0.0350353 -0.0398549 0.0379651 -0.0151343 0.00801876 -0.020463 0.0314398 -0.0160612 0.00417312 -0.0316467 0.00749928 -0.0125586 -0.0394026 -0.0152964 0.0100469 0.0164154 -0.0299605 -0.0713128 -0.0489093 -0.0872633 0.00551424 0.00917922 -0.038304 -0.0531647 -0.00925368 0.0409685 -0.00882473
internal_weight=0 224980 174603 68730.4 50376.8 66127.7 73765.5 100838 60882 54261.8 53659.3 86488.3 39952.2 75441 49018.4 2602.67 45889 12883.5 21058 14051 10424.6 4335.33 6089.27 71773.3 57004.1 30796.6 7222.73 9155.63 33203.8 31838
internal_count=1586157 1065875 825608 520282 240267 507116 317819 507789 258962 388372 226847 422751 180572 371883 207416 13166 192848 58857 131395 60027 59695 22968 36727 352066 281748 142155 32115 38417 256977 132821
is_linear=0
shrinkage=0.1


Tree=17
num_leaves=31
num_cat=0
split_feature=22 5 22 5 22 42 1 42 43 9 5 2 10 9 9 22 9 43 34 22 34 5 22 9 5 5 9 34 34 41
split_gain=9027.65 3658.03 2044.79 1773.08 1102.76 1057 828.669 775.034 768.257 758.619 666.311 605.749 560.945 555.39 434.257 433.049 428.607 427.828 423.513 388.763 386.898 487.931 386.77 374.284 321.098 392.965 304.198 301.786 294.351 308.395
threshold=0.70436369406537624 16.500000000000004 0.87336044446990102 10.500000000000002 0.39104427736006692 64.643657700421954 6524.5000000000009 45.522544283413858 55.816224445411059 0.59347503547929314 5.5000000000000009 11.500000000000002 0.6618888783807052 0.82193198899571751 0.72461237980769244 0.43488009358549429 0.69025504090924661 72.739412761151911 0.89444444444444449 0.94413388448094115 0.96153846153846168 3.5000000000000004 0.19123998606757231 0.59347503547929314 -1.0000000180025095e-35 4.5000000000000009 0.56524577137018961 0.88194444444444453 0.89444444444444449 104.53530297081535
decision_type=2 2 2 2 2 2 2 2 2 2 2 2 2 2 2 2 2 2 2 2 2 2 2 2 2 2 2 2 2 2
left_child=1 5 3 7 22 10 24 20 12 -4 -1 27 16 17 -10 -8 -6 -5 -12 -11 21 -2 -3 -24 -7 -26 -17 -9 29 -27
right_child=2 4 9 13 8 6 15 11 14 19 18 -13 -14 -15 -16 26 -18 -19 -20 -21 -22 -23 23 -25 25 28 -28 -29 -30 -31
leaf_value=-0.029320732379102557 -0.054887487100657231 -0.06735443136031033 0.019199068439106126 0.024095946662729049 0.0087575567523020138 0.087785214966263306 -0.048565512496602146 -0.052785415622272097 -0.012318699513243544 0.049931403493793089 0.018191195869517802 0.011319480160859343 -0.0059710718451277504 0.04101515551146049 0.0039891952577667629 -0.035794763475858554 0.034002682108033165 0.0050056812311456284 -0.030242542677805392 0.083172284399355811 -0.065417059968630037 0.04170460015880343 -0.042300132230208773 -0.011374501441341778 -0.095344944212444799 -0.022807339047093131 -0.007188634908893269 -0.13224389161945321 -0.080669408246445959 -0.08023320061606691
leaf_weight=15138.131456881762 640.73429131507874 1812.6411632299423 7056.8888002410531 33127.969889707863 14573.830461189151 133.62187314033508 11093.434909239411 4317.1229117065668 37410.005868688226 16128.603115856647 6598.0227025747299 1489.4266561642289 11482.519112423062 12268.462212301791 28976.131519466639 7989.6528967022896 12487.702801570296 18182.668411687016 2485.4809061735868 4499.9982866346836 562.61093473434448 2845.3309977278113 5235.8254086226225 15495.561150819063 3577.9751186966896 3252.042637616396 6951.9841318130493 537.5007643699646 2764.2538742721081 1312.6437311470509
leaf_count=69690 3275 8214 54140 202956 65092 648 53264 23028 158432 154150 29620 6453 54561 90526 140586 36503 66363 106983 11136 49472 2979 16171 22308 64593 24371 15888 29845 2716 15186 7008
internal_value=0 -0.0126449 0.0243183 0.0156417 -0.00299188 -0.0327195 -0.0433334 -0.0226516 0.00131928 0.0475009 -0.016473 -0.0444673 0.0125489 0.0219012 -0.00520065 -0.0335978 0.0204071 0.017331 0.00493848 0.0571827 0.0115323 0.0239511 -0.023058 -0.0191849 -0.0662912 -0.0681788 -0.022485 -0.061583 -0.0549164 -0.039321
internal_weight=0 188771 101657 73971.8 127474 61297.2 37075.6 10392.7 104930 27685.5 24221.6 6344.05 38544.1 63579.1 66386.1 26035.1 27061.5 51310.6 9083.5 20628.6 4048.68 3486.07 22544 20731.4 11040.5 10906.9 14941.6 4854.62 7328.94 4564.69
internal_count=1586157 873308 712849 455087 580149 293159 182713 54622 485034 257762 110446 32197 186016 400465 299018 119612 131455 309939 40756 203622 22425 19446 95115 86901 63101 62453 66348 25744 38082 22896
is_linear=0
shrinkage=0.1


Tree=18
num_leaves=31
num_cat=0
split_feature=22 22 5 5 9 1 9 2 43 22 42 9 7 5 43 42 43 9 35 5 22 9 5 9 9 5 5 5 5 34
split_gain=7698.09 2947.62 2274.16 1550.71 1019.48 866.224 737.953 721.605 712.519 641.034 595.753 580.018 568.419 565.238 423.639 440.431 394.077 362.21 336.292 331.558 330.222 329.585 303.037 290.417 276.14 274.162 266.007 258.663 257.058 315.715
threshold=0.57959573612228488 0.81803659599186773 24.500000000000004 6.5000000000000009 0.60544516576402108 6695.5000000000009 0.84620115431923559 11.500000000000002 79.817794486215547 0.93173642903858733 95.513639266490301 0.50018754688672173 93.500000000000014 7.5000000000000009 24.276363636363641 73.174508050089457 34.292572463768117 0.88119689628537334 1.5000000000000002 45.500000000000007 0.36323411102172171 0.81821789321789329 6.5000000000000009 0.41863967497898574 0.56242912232227493 3.5000000000000004 15.500000000000002 1.0000000180025095e-35 3.5000000000000004 0.86607142857142871
decision_type=2 2 2 2 2 2 2 2 2 2 2 2 2 2 2 2 2 2 2 2 2 2 2 2 2 2 2 2 2 2
left_child=2 3 5 7 13 10 12 28 14 21 -1 -7 26 18 -4 -16 -14 20 -3 -17 -13 25 27 -10 -9 -6 -5 -22 -2 -30
right_child=1 4 8 6 9 11 -8 24 23 -11 -12 17 16 -15 15 19 -18 -19 -20 -21 22 -23 -24 -25 -26 -27 -28 -29 29 -31
leaf_value=-0.035682634313800046 -0.07629844171128479 0.050902090620140499 0.029763133419150198 -0.029535178120965889 -0.045725349355894132 -0.040139327832988375 0.033396211783841431 -0.024480697138709599 -0.047572720445224578 0.073653816458178659 -0.076050311289415279 -0.041091891234568578 0.032498608818997902 0.021496348169666644 -0.018011500709348129 -0.013894781671375624 0.009175200739005426 0.054057363848535572 -0.048906253228123406 0.011905581811934561 0.059319012431909193 0.054692386883128011 0.011463380588218575 -0.015032994162381212 0.014964930094479315 0.033001348286277668 -0.000861022448748163 -0.021891964763815108 -0.013990144939204745 -0.089109104625930163
leaf_weight=7837.7629077583551 2675.6645651161671 406.87983909249306 4765.5044267624617 3706.3623543828726 452.24152234196663 16509.502801641822 11921.228658795357 3772.3933807015419 3035.579690515995 6134.7287117466331 6852.1107359975576 4705.907010897994 8516.4302708283067 11628.069632433355 11692.070261269808 6685.7017900794744 48498.560786746442 727.19916287064552 1982.1929661035538 19533.562220856547 405.70400480926037 8478.2751464694738 4386.3713412135839 28438.039196938276 3351.3979819864035 20217.657979406416 25454.013146087527 11780.760703593493 2166.1605166643858 754.33011740446091
leaf_count=36633 16666 2358 23882 17732 2269 79548 77278 16976 12647 71616 39972 22086 48237 83769 51421 29220 255339 3491 10745 85571 1755 78084 19654 120880 14048 169514 127227 52302 10942 4295
internal_value=0 0.0148669 -0.0180761 0.00581706 0.035209 -0.0338514 0.0100768 -0.0270338 -0.00675671 0.0442728 -0.0545122 -0.0259714 0.00685082 0.0123941 0.00166148 -0.00187094 0.0126591 -0.0153422 -0.031908 0.0053267 -0.0177139 0.0380891 -0.0110757 -0.0181714 -0.00592344 0.0312789 -0.00450558 -0.0191883 -0.0539069 -0.0333925
internal_weight=0 160117 127356 110817 49300 53205.3 98096.6 12719.9 74150.5 35282.9 14689.9 38515.4 86175.4 14017.1 42676.8 37911.3 57015 22005.9 2389.07 26219.3 21278.7 29148.2 16572.8 31473.6 7123.79 20669.9 29160.4 12186.5 5596.16 2920.49
internal_count=1586157 1007095 579062 588740 418355 255441 525813 62927 323621 321483 76605 178836 448535 96872 190094 166212 303576 99288 13103 114791 95797 249867 73711 133527 31024 171783 144959 54057 31903 15237
is_linear=0
shrinkage=0.1


Tree=19
num_leaves=31
num_cat=0
split_feature=22 5 22 9 42 1 22 9 22 5 9 5 12 43 5 22 1 34 9 10 35 9 5 35 10 9 5 5 34 41
split_gain=6419.8 3472.95 1281.96 1031.95 950.568 1007.24 873.369 720.705 580.271 543.412 537.572 493.174 555.422 491.708 426.592 402.319 363.292 343.629 327.755 318.23 321.091 314.777 293.014 408.855 287.072 284.217 258.38 265.318 388.667 277.388
threshold=0.79084722949226061 13.500000000000002 0.56347757046447011 0.47686008962699361 57.75524061564176 6479.5000000000009 0.91734226871526647 0.84850429844011377 0.2766417050691245 5.5000000000000009 0.28053167222319714 348.50000000000006 0.68509269713061471 21.688486842105267 6.5000000000000009 0.43488009358549429 2078.5000000000005 0.88194444444444453 0.73856806586132329 0.59528091812264483 1.5000000000000002 0.84064101695277993 7.5000000000000009 1.5000000000000002 0.53897664835164838 0.81821789321789329 -1.0000000180025095e-35 2.5000000000000004 0.89444444444444449 85.667865707434075
decision_type=2 2 2 2 2 2 2 2 2 2 2 2 2 2 2 2 2 2 2 2 2 2 2 2 2 2 2 2 2 2
left_child=1 4 7 22 9 21 14 8 -3 -1 -10 12 -4 -12 16 -7 -5 -11 -17 20 -15 26 23 -2 -9 -16 -6 -28 29 -29
right_child=3 2 11 6 5 15 -8 24 10 17 13 -13 -14 19 25 18 -18 -19 -20 -21 -22 -23 -24 -25 -26 -27 27 28 -30 -31
leaf_value=-0.022778831403346592 0.043355506581135149 -0.043966450105951134 0.022058397007611297 -0.076611915934835795 0.039494393847314679 -0.04068408844136559 0.06129477661177303 0.039127588992573785 -0.063816053748740151 0.023902051395936756 0.027945300648268352 -0.0054702821815647293 0.0036002144160608828 -0.024229597078730493 0.026099586828870605 -0.022660330234574241 0.010270937363419625 -0.024770617767342476 0.015043490214755834 -0.019946120735263289 -0.00030952006742675784 -0.00024222688516929502 0.0065310902557634319 -0.065667718314086951 0.0029797935301425385 0.046113127550412712 -0.10128301110511168 -0.028450460400139013 -0.090446923139183649 -0.071243609463935736
leaf_weight=12096.141522049904 456.92276836931705 5402.8358667194843 32654.761042848229 636.70475686341524 231.91933804750443 11865.602850630879 9864.3157379031181 3641.0144607126713 1794.1969444155693 5630.7381008192897 3531.706832587719 18985.242037191987 32553.987773194909 6902.4931266903877 30071.176015287638 15220.95903660357 1971.3947409614921 1953.8188834488392 2717.1495817527175 22140.061489716172 30011.868031561375 805.19757960736752 6336.3712306469679 1391.5903200283647 5539.5575276464224 9287.3358514755964 1888.4654657691717 3674.1801432818174 2888.4859055355191 2577.270883500576
leaf_count=56911 2674 24571 171399 3376 1118 58912 114681 18417 7477 26959 17664 94875 175367 28813 231394 69298 10385 9093 11466 92702 128650 3926 40482 7275 25337 84760 14079 19366 18350 16380
internal_value=0 -0.00750616 0.000129565 0.0293093 -0.0277471 -0.0362673 0.0345202 -0.00902337 -0.0124885 -0.00962095 -0.00984689 0.0087139 0.0128436 -0.00829972 0.0282268 -0.0263987 -0.0109394 0.0113637 -0.0169492 -0.0104673 -0.00478226 -0.0606444 -0.00368839 -0.0387189 0.017316 0.0308221 -0.0649636 -0.0671603 -0.0601099 -0.0460927
internal_weight=0 224708 163158 60015.8 61549.9 41869.2 51830.9 78963.7 69783.2 19680.7 64380.3 84194 65208.7 62586.1 41966.6 29803.7 2608.1 7584.56 17938.1 59054.4 36914.4 12065.5 8184.88 1848.51 9180.57 39358.5 11260.3 11028.4 9139.94 6251.45
internal_count=1586157 1091130 785272 495027 305858 212895 444596 343631 299877 92963 275306 441641 346766 267829 329915 139676 13761 36052 80764 250165 157463 73219 50431 9949 43754 316154 69293 68175 54096 35746
is_linear=0
shrinkage=0.1


Tree=20
num_leaves=31
num_cat=0
split_feature=22 9 22 22 5 5 1 5 5 9 1 0 12 35 9 42 22 7 42 1 8 5 5 9 5 43 9 22 1 22
split_gain=5320.62 3011.38 1288.02 948.768 909.737 894.143 781 663.125 528.817 490.298 474.385 466.818 441.381 398.327 386.074 367.639 366.667 341.288 287.793 287.466 282.546 278.108 273.927 270.975 268.73 249.969 242.061 230.867 222.521 209.912
threshold=0.79084722949226061 0.55561620572537618 0.51313325448452607 0.9464004055881029 6.5000000000000009 19.500000000000004 3207.5000000000005 23.500000000000004 6.5000000000000009 0.76613394365643794 6386.5000000000009 2074.5000000000005 0.55562685242976706 1.5000000000000002 0.82704955610851782 126.04626830969544 0.28519321642997714 29.500000000000004 57.75524061564176 2648.5000000000005 70.500000000000014 4.5000000000000009 -1.0000000180025095e-35 0.54551052395879995 49.500000000000007 37.242998433215831 0.85757423786511056 0.32304288631722267 716.50000000000011 0.26641145713629061
decision_type=2 2 2 2 2 2 2 2 2 2 2 2 2 2 2 2 2 2 2 2 2 2 2 2 2 2 2 2 2 2
left_child=1 5 7 4 19 10 8 15 -4 17 18 14 25 -7 21 29 -15 -6 -1 -2 -18 -8 -20 -21 -19 -9 28 -12 -10 -3
right_child=3 2 6 -5 9 13 11 12 26 -11 27 -13 -14 16 -16 -17 20 24 22 23 -22 -23 -24 -25 -26 -27 -28 -29 -30 -31
leaf_value=-0.029232499455327323 -0.055167145514348308 -0.060611756667100627 -0.06565258126866301 0.069826457523225929 -0.0047360393305102711 -0.032379875406035104 -0.0080224487928135212 0.024293756768209704 -0.020723943363587849 0.04056097519710028 -0.059290225466508951 0.0036798696237032961 -0.014010926892529574 -0.065138087615061235 0.044118512876718849 -0.059686933499649687 -0.023289259258223741 0.032953393577911792 0.036162133662743845 -0.036058692782147309 0.0021343726769338157 0.020855741727144675 -0.075247079088511803 0.024534377228563602 0.012808492351946872 -8.338199088854707e-05 0.018531060051178962 -0.02664146264994734 -0.0001735877554979701 -0.017292422327221078
leaf_weight=2403.8400905132294 1516.5942978933454 1201.0332946106791 1316.2624178901315 4761.7020622640848 4822.2753082811832 8249.8092169910669 3823.4472544267774 5810.2176440656185 6656.1475770920515 17631.666948273778 2410.2941619679332 22706.650670401752 20340.838251546025 1035.5754642635584 6462.1689916327596 2735.5265476182103 5857.0108114480972 15156.781999140978 230.21940080821514 1303.8859803900123 17233.267456948757 26094.727829106152 5334.3990727216005 1700.7054995000362 11759.781738847494 15239.882826626301 5347.9191487878561 21356.06231149286 25284.122257888317 16297.677044324577
leaf_count=11583 8605 6112 8126 56823 33421 34885 17495 27830 34884 168763 13169 117881 85374 4955 39875 15348 25161 119395 1110 6871 75480 133939 34072 9373 91776 65085 32250 102992 128960 74564
internal_value=0 -0.00680248 0.000562121 0.0270393 0.0232588 -0.0251037 0.0077035 -0.0107588 -0.00335827 0.0271906 -0.0370321 0.0149307 -0.00350591 -0.0134115 0.0219529 -0.0255951 -0.00692529 0.019763 -0.0581471 -0.0196756 -0.00431451 0.0171652 -0.0706379 -0.00176086 0.0241521 0.00664516 -0.0011593 -0.0299526 -0.00445615 -0.0202657
internal_weight=0 223427 159317 58653.4 53891.7 64110.5 97691.4 61625.2 38604.5 49370.5 31734.8 59087 41390.9 32375.7 36380.3 20234.2 24125.9 31738.8 7968.46 4521.19 23090.3 29918.2 5564.62 3004.59 26916.6 21050.1 37288.2 23766.4 31940.3 17498.7
internal_count=1586157 1091130 787723 495027 438204 303407 513410 274313 204220 413355 162926 309190 178289 140481 191309 96024 105596 244592 46765 24849 100641 151434 35182 16244 211171 92915 196094 116161 163844 80676
is_linear=0
shrinkage=0.1


Tree=21
num_leaves=31
num_cat=0
split_feature=22 22 9 5 9 22 42 1 9 0 10 5 9 22 43 5 5 9 1 1 43 22 1 5 9 5 5 5 1 42
split_gain=4529.73 1723.08 1571.9 1077.64 752.781 661.701 639.156 728.189 633.772 521.838 450.036 570.271 436.882 420.39 360.514 331.754 316.621 299.925 299.262 297.346 293.308 269.502 260.066 257.798 310.985 244.581 241.694 241.402 258.206 239.297
threshold=0.61646290568075823 0.85741037988229007 0.52822618440100411 11.500000000000002 0.84850429844011377 0.34758686817953527 41.495347564313086 2614.5000000000005 0.70004599816007362 3709.5000000000005 0.59528091812264483 5.5000000000000009 0.85757423786511056 0.36323411102172171 45.789045785194702 6.5000000000000009 53.500000000000007 0.7164265478164733 6575.5000000000009 4165.5000000000009 19.993243243243246 0.94413388448094115 5952.5000000000009 -1.0000000180025095e-35 0.2917663476874004 4.5000000000000009 147.50000000000003 37.500000000000007 6152.5000000000009 77.62810457516342
decision_type=2 2 2 2 2 2 2 2 2 2 2 2 2 2 2 2 2 2 2 2 2 2 2 2 2 2 2 2 2 2
left_child=2 3 13 6 5 16 25 -8 15 12 11 18 14 -1 22 -3 -4 -9 -7 -6 -13 -10 -5 -15 -25 -2 -16 28 -26 -28
right_child=1 8 4 9 19 10 7 17 21 -11 -12 20 -14 23 26 -17 -18 -19 -20 -21 -22 -23 -24 24 27 -27 29 -29 -30 -31
leaf_value=-0.051459443836629197 -0.022684453529194556 -0.019052261863196647 -0.042492294844376 0.01804173585716843 -0.0015885861582429503 -0.076284881069657209 -0.073941583754936535 -0.02478688574655015 0.042305428886630275 -0.0052617217915713436 -0.015237949827586351 0.037184470930452289 0.03807274542513675 0.10162726602133887 0.013659644953811518 0.025186118538456443 -0.012736398753254325 0.014223524929801754 -0.013978146401636669 0.029254615505452438 0.004152243363530506 0.077298628686135462 0.046390341625058507 -0.044271233341237275 -0.05305039835901687 0.033163665749870043 -0.040675807323790232 -0.0078996976924264033 -0.021219709351322856 0.0021733394167598535
leaf_weight=6966.1892642751336 1058.2499348521233 1960.0655047446489 7673.1429284587502 15478.566191531718 5240.8752354234457 827.26954190433025 2602.9592259302735 7660.6658738180995 13224.677577257156 15020.501399502158 28531.065128788352 2920.3627399206161 7495.7311654165387 161.5561104118824 27806.552714191377 12544.06435931474 6697.0240650624037 2653.5030800104141 11307.174011111259 7744.4989947676659 33801.662017226219 2640.2739623337984 4091.4967371895909 6651.7647500783205 3213.3746733516455 3027.6502856165171 1411.5462425798178 10024.030025601387 12315.590733267367 16999.535816177726
leaf_count=37224 5136 11287 37931 96001 24428 6594 14897 38693 141757 85425 126840 15404 55478 811 157423 115433 28411 13623 50891 39433 150964 36947 24935 32353 18057 16869 8112 41558 59266 93976
internal_value=0 0.0133312 -0.0121298 0.00727935 -0.00572907 -0.00891824 -0.0157741 -0.0266784 0.0343164 0.0117183 -0.00525888 0.000568673 0.0151986 -0.0291751 0.0125924 0.0192078 -0.028625 -0.0147508 -0.0182259 0.0168064 0.00677917 0.0481291 0.0239686 -0.0243789 -0.025011 0.018699 0.00777534 -0.0199973 -0.0278064 -0.00111183
internal_weight=0 135676 144076 105307 104743 91757.7 17003 12917.1 30369.1 88303.9 77387.5 48856.5 73283.4 39332.5 65787.7 14504.1 14370.2 10314.2 12134.4 12985.4 36722 15865 19570.1 32366.3 32204.8 4085.9 46217.6 25553 15529 18411.1
internal_count=1586157 915992 670165 610568 480896 417035 89218 67213 305424 521350 350693 223853 435925 189269 380447 126720 66342 52316 57485 63861 166368 178704 120936 152045 151234 22005 259511 118881 77323 102088
is_linear=0
shrinkage=0.1


Tree=22
num_leaves=31
num_cat=0
split_feature=22 9 22 5 9 9 1 22 1 42 9 22 5 42 1 7 5 35 35 22 0 5 5 5 43 5 7 1 5 5
split_gain=3766.48 1869.19 1011.2 880.819 863.087 645.568 607.005 513.167 513.159 455.066 407.747 375.572 371.933 557.51 457.35 364.908 362.878 358.962 335.742 305.35 303.318 290.71 286.407 268.223 263.014 249.631 236.403 235.934 219.52 214.599
threshold=0.73378959170326086 0.6543797672829933 0.92586048946472987 25.500000000000004 0.50994696709849363 0.85757423786511056 6386.5000000000009 0.39104427736006692 3207.5000000000005 96.097929674663177 0.83339728830903059 0.48039813617623389 9.5000000000000018 39.396504790940774 2648.5000000000005 7.5000000000000009 10.500000000000002 1.5000000000000002 1.5000000000000002 0.28519321642997714 2074.5000000000005 1.0000000180025095e-35 15.500000000000002 41.500000000000007 21.99666666666667 2.5000000000000004 22.500000000000004 6695.5000000000009 4.5000000000000009 49.500000000000007
decision_type=2 2 2 2 2 2 2 2 2 2 2 2 2 2 2 2 2 2 2 2 2 2 2 2 2 2 2 2 2 2
left_child=1 3 4 6 16 7 9 -3 22 25 12 -8 13 -6 -15 -7 -2 -5 23 -19 -10 -11 -9 -18 -14 -1 -21 -17 -13 -26
right_child=2 5 -4 17 10 15 11 8 20 21 -12 28 24 14 -16 27 18 19 -20 26 -22 -23 -24 -25 29 -27 -28 -29 -30 -31
leaf_value=-0.096644644638517421 -0.037445448808869838 -0.018139121855762757 0.051607546012689513 -0.023836657272602122 0.028672225068430597 -0.036524467757733353 -0.030831424836641211 -0.040625641094300953 0.014020016319711915 0.057623252370165245 0.036914007181452588 -0.017630379141651383 0.047250961215397499 -0.087638733165250601 -0.0088584617683218469 0.017158210640776925 -0.27152062190133236 -0.043275705340719721 0.013099786038602835 -0.021314744184976937 -0.0025401712702702943 -0.079051488776357481 -0.0058856561460029246 -0.023555106219147286 0.023876816565811445 -0.027926053886608765 0.0023125290950087459 0.046140386630605129 0.0076099816787449067 0.009285711727345481
leaf_weight=569.31172619014978 3294.0740882381797 15215.394829213619 8186.3467642143369 11076.241235643625 2393.5493771582842 1042.9664280936122 17246.57053039968 2655.1234822198749 30868.982323303819 161.96180985867977 11102.85387147963 10661.741579778492 3035.3598889857531 1092.3743842020631 2264.5789278447628 10788.31409933418 44.288377821445465 1809.4382477998734 6831.9856695383787 4954.5708191543818 17235.925014741719 3978.6933887153864 22345.420892462134 2902.8471512570977 20570.611322328448 7397.2492519840598 29146.722679927945 3797.5938051193953 5091.1253532767296 19764.554749332368
leaf_count=4456 17708 67192 104144 46515 16647 5653 88857 14207 151409 772 102116 50405 27565 6355 11973 56897 248 8684 39698 20941 83165 28032 105714 15937 155996 36630 127461 21516 22931 146333
internal_value=0 -0.00730663 0.0182739 -0.0176807 0.014551 0.00188419 -0.0276622 -0.00143087 0.0020466 -0.0468139 0.0196068 -0.0206356 0.0156948 -0.00820217 -0.0344941 0.020618 -0.00873946 -0.00809859 0.000930091 -0.00324436 0.00808652 -0.0737055 -0.00957513 -0.0272814 0.0188633 -0.0328369 -0.00112027 0.024704 -0.00947302 0.0167271
internal_weight=0 196043 81483.4 92093.6 73297.1 103950 45106.7 88320.8 73105.5 12107.2 60223.9 32999.4 49121 5750.5 3356.95 15628.9 13073.2 46987 9779.12 35910.7 48104.9 4140.66 25000.5 2947.14 43370.5 7966.56 34101.3 14585.9 15752.9 40335.2
internal_count=1586157 941437 644720 435684 540576 505753 232083 421687 354495 69890 466985 162193 364869 34975 18328 84066 73591 203601 55883 157086 234574 28804 119921 16185 329894 41086 148402 78413 73336 302329
is_linear=0
shrinkage=0.1


Tree=23
num_leaves=31
num_cat=0
split_feature=22 22 5 9 42 1 5 9 1 43 5 0 9 42 9 35 43 1 1 22 22 9 17 5 5 23 7 22 12 5
split_gain=3288.84 1435.6 1084.38 926.461 670.663 606.408 497.848 443.946 441.375 422.81 383.431 351.907 353.676 347.774 290.381 286.905 257.475 243.517 225.598 222.077 217.296 216.598 201.73 199.248 197.922 189.427 183.277 177.499 175.58 169.229
threshold=0.57403255273210441 0.88006309148264994 28.500000000000004 0.53535648713907047 98.277050911261099 4128.5000000000009 4.5000000000000009 0.66681468324452353 6735.5000000000009 69.979721933771785 12.500000000000002 4635.0000000000009 0.83722749936310381 85.570433436532525 0.67684682915654182 1.5000000000000002 23.851851851851855 682.50000000000011 6479.5000000000009 0.95531435417617538 0.95164288283966914 0.78574859338548109 1.5000000000000002 11.500000000000002 7.5000000000000009 177.50000000000003 10.500000000000002 0.26641145713629061 0.65003150588484926 48.500000000000007
decision_type=2 2 2 2 2 2 2 2 2 2 2 2 2 2 2 2 2 2 2 2 2 2 2 2 2 2 2 2 2 2
left_child=2 3 4 10 14 6 -5 20 -6 13 18 12 25 16 27 -12 -4 23 -2 -9 24 -19 -10 -8 -3 -7 -23 -1 -16 -15
right_child=1 7 9 5 8 11 17 19 22 -11 15 -13 -14 29 28 -17 -18 21 -20 -21 -22 26 -24 -25 -26 -27 -28 -29 -30 -31
leaf_value=-0.064745173499612271 -0.042042919443395464 -0.026979345294140977 0.020079154374532612 -0.058929463541861404 -0.060653408531666009 0.013481815880537951 -0.062474797483018034 0.040804530727017153 0.053145266749365476 -0.011276295345598545 -0.020854481199284642 -0.015101178232349697 0.044080721064451711 -0.0036807326887645653 0.0028512086675441303 0.0052935289068762386 -0.010613791380488041 0.0038017797609722469 -0.010195030898053379 0.079937544037967267 0.053247456803975503 -0.026368001071338243 -0.028663342377263937 -0.0044522268925244208 0.017123330484597962 0.030200548973129238 0.021072286766004339 -0.020526695127926205 -0.024754677901205717 0.021964297138844648
leaf_weight=942.27824617922306 4681.7370926961303 1222.8428529426455 3366.0974040701985 1233.6732738167048 6495.543429389596 25671.35435667634 624.55010356009007 10914.0322916843 314.04851654171944 36044.985106810927 5852.6660061180592 2763.6336699947715 6053.2763901948929 3350.2626082450151 9725.0167129859328 14826.587402410805 14534.298868328333 31508.554127842188 4237.204382494092 1672.3764008171856 1361.2093509659171 863.69471906125546 7495.7135218381882 11298.652678988874 6061.8222204521298 9207.6866627261043 14255.248519584537 24807.992012418807 3019.2249928861856 11093.668529912829
leaf_count=5567 27400 7242 17680 8180 41376 139050 3628 132868 1474 153825 26616 15991 45035 14860 44154 72358 64498 181925 19711 25921 15092 6440 37124 74717 58468 60315 98757 123139 13336 49410
internal_value=0 0.00987208 -0.0121395 0.00601941 -0.0229051 0.0104818 0.0039372 0.0340197 -0.041393 -0.00382803 -0.00958172 0.019436 0.0217678 0.00447243 -0.0160346 -0.00210691 -0.00484211 0.00526181 -0.0269126 0.0460042 0.016573 0.00852298 -0.0253736 -0.00749151 0.00972002 0.0178954 0.0183622 -0.0221448 -0.00368887 0.0160159
internal_weight=0 154311 121189 133079 52799.8 103480 59784.4 21232.3 14305.3 68389.3 29598.2 43696 40932.3 32344.3 38494.5 20679.3 17900.4 58550.7 8918.94 12586.4 8645.87 46627.5 7809.76 11923.2 7284.67 34879 15118.9 25750.3 12744.2 14443.9
internal_count=1586157 1019714 566443 780123 266170 634038 373647 239591 79974 300273 146085 260391 244400 146448 186196 98974 82178 365467 47111 158789 80802 287122 38598 78345 65710 199365 105197 128706 57490 64270
is_linear=0
shrinkage=0.1


Tree=24
num_leaves=31
num_cat=0
split_feature=22 9 22 22 9 9 1 5 5 22 0 5 5 2 42 5 43 9 7 1 5 42 1 5 35 23 1 2 22 5
split_gain=2749.31 1621.96 817.719 626.886 567.339 546.866 525.159 484.374 416.321 409.737 405.286 392.063 381.582 336.098 328.553 311.743 308.813 299.325 290.356 279.747 391.56 273.82 259.009 208.338 197.882 180.525 178.066 171.937 165.669 160.133
threshold=0.79549678945589741 0.50018754688672173 0.42072814292499366 0.9464004055881029 0.85757423786511056 0.429175608011445 2548.5000000000005 4.5000000000000009 13.500000000000002 0.42500620296088004 3709.5000000000005 2.5000000000000004 33.500000000000007 11.500000000000002 124.58599105812222 19.500000000000004 17.677083333333339 0.81821789321789329 10.500000000000002 1441.5000000000002 9.5000000000000018 45.213657484234993 6386.5000000000009 1.0000000180025095e-35 1.5000000000000002 130.50000000000003 6653.5000000000009 11.500000000000002 0.19123998606757231 -1.0000000180025095e-35
decision_type=2 2 2 2 2 2 2 2 2 2 2 2 2 2 2 2 2 2 2 2 2 2 2 2 2 2 2 2 2 2
left_child=1 9 12 5 6 -2 8 13 21 -1 16 27 14 -8 -3 22 -9 19 -6 20 -13 -4 29 -15 -17 -18 -20 -7 -14 -11
right_child=3 2 4 -5 18 11 7 10 -10 15 -12 17 28 23 -16 24 25 -19 26 -21 -22 -23 -24 -25 -26 -27 -28 -29 -30 -31
leaf_value=-0.037703106346228837 -0.013377957778544608 -0.020025380751773618 -0.0021341419182249366 0.05900331248077291 -0.020560535251616486 -0.080018861813953623 -0.054957117888852672 0.043040127558621355 -0.0061961724957798371 0.037111819365790548 -0.0098244731352527606 -0.065694424285494532 -0.041191101231285721 0.060327998143742012 -0.061889531775258702 -0.022969874948795783 0.0020437427189615182 0.038349551626688877 0.020982868748627675 0.023916385429764604 0.0095875354640762335 -0.065359225936644436 -0.017913625046066802 -0.0095550311717643513 -0.00066876767513803002 0.013153725108024704 0.050334560051931591 0.042862346729631746 -0.0029944629495445075 -0.048752586879359544
leaf_weight=11161.445430248976 5098.3680425137281 11766.880447089672 1017.9299973919988 3956.1422687396407 1432.4567911028862 537.52140731364489 1663.1607028394938 2840.8554347082973 29046.060591079295 227.6380670517683 11125.139519892633 747.72266478091478 1206.9210860729218 444.04278691112995 2229.9171448424459 5587.925436809659 22217.668744377792 9263.0620901882648 10237.378047868609 23772.176254153252 9091.7399976029992 2094.3260599449277 12833.654192201793 10862.982156932354 13817.017168164253 42799.610205285251 2589.7296118661761 144.47211392223835 19190.637043371797 4735.7561017870903
leaf_count=60189 30715 57080 5280 56823 8576 3080 12460 16147 146357 1061 54329 5456 5655 1889 13393 23387 101690 100865 62841 201236 82466 12651 62386 48393 60285 224003 16564 616 80891 29393
internal_value=0 -0.00471194 -0.000180601 0.0207223 0.0032494 0.0176097 0.00107897 0.00492579 -0.00992062 -0.020899 0.0078669 0.0212368 -0.0139798 -0.0129844 -0.026695 -0.0158573 0.0107674 0.0224334 0.0221403 0.018047 0.00386669 -0.0446801 -0.025416 -0.00681063 -0.00709068 0.00935723 0.0269088 -0.053988 -0.00525455 -0.0448146
internal_weight=0 221129 172766 52611.2 138371 48655.1 124112 91953.5 32158.3 48363.4 78983.3 43556.7 34394.4 12970.2 13996.8 37202 67858.1 42874.7 14259.6 33611.6 9839.46 3112.26 17797 11307 19404.9 65017.3 12827.1 681.994 20397.6 4963.39
internal_count=1586157 1104900 868199 481257 711180 424434 623199 458911 164288 236701 396169 393719 157019 62742 70473 176512 341840 390023 87981 289158 87922 17931 92840 50282 83672 325693 79405 3696 86546 30454
is_linear=0
shrinkage=0.1


Tree=25
num_leaves=31
num_cat=0
split_feature=22 22 9 9 5 22 1 9 1 1 9 1 0 43 1 0 5 9 22 5 5 1 42 10 5 0 22 8 1 42
split_gain=2328.4 1031.69 846.474 554.46 529.981 485.849 457.051 452.184 370.893 359.336 334.397 305.106 284.891 276.88 298.529 259.987 252.087 237.418 218.096 233.42 206.768 369.989 206.447 305.122 206.274 206.135 203.578 198.957 195.945 187.799
threshold=0.58896499238965005 0.85741037988229007 0.68027607775899168 0.75511154182343343 11.500000000000002 0.26641145713629061 9045.5000000000018 0.71434317894494892 2614.5000000000005 2011.5000000000002 0.40071562075940298 3207.5000000000005 2179.5000000000005 124.5901098901099 6575.5000000000009 5498.5000000000009 82.500000000000014 0.81618267037000314 0.95918937805730276 7.5000000000000009 40.500000000000007 6152.5000000000009 53.053604503801914 0.67153518123667388 5.5000000000000009 710.00000000000011 0.9464004055881029 72.500000000000014 6613.5000000000009 40.603892839186962
decision_type=2 2 2 2 2 2 2 2 2 2 2 2 2 2 2 2 2 2 2 2 2 2 2 2 2 2 2 2 2 2
left_child=2 3 5 4 8 -1 11 18 29 -5 -7 16 17 14 27 28 -4 -13 19 -3 21 24 -10 -24 -12 -8 -9 -6 -11 -2
right_child=1 7 6 9 13 10 25 26 22 15 20 12 -14 -15 -16 -17 -18 -19 -20 -21 -22 -23 23 -25 -26 -27 -28 -29 -30 -31
leaf_value=-0.054233429219307051 -0.0084765498672912543 -0.020326744852257477 -0.025363078568359537 0.0010902619179618397 -0.0091866781639521854 -0.027912885924249339 -0.011115337923425922 0.034641989699792215 0.0076735264964171287 0.019434337641650274 -0.078467686349313892 0.0014916186587172445 -0.010505522962991506 -0.0076163813123179174 0.028359865572355175 -0.03352960003940391 0.00036793828140097007 0.02206039252876129 0.055705541930449444 0.016095508236935695 -0.0041438666979617929 -0.010260145635744761 -0.0074448923967723405 -0.051356320850156525 -0.029847874863317775 0.052436595778912368 0.070803547662146013 0.0081137477906817711 0.043792501574084174 -0.066730008276081054
leaf_weight=3376.0396832227707 772.23344877362251 2081.4503439106047 9152.6402451470494 13117.31305577606 8288.2565825730562 15972.662165254354 661.63878045976162 11328.19553283602 4488.2250809073448 20689.738354630768 1021.9272714108229 18495.537840932608 12643.612414419651 15651.61126139015 6104.6211214661598 831.54683773964643 6519.6190143674612 8056.0073814243078 1157.0963385440409 11377.882874883711 22332.483127936721 20169.63272228837 5994.0589213445783 2149.9964772686362 5971.8796772360802 2232.5130689367652 1804.8535105884075 33574.779407687485 3929.8036519885063 1953.0251684039831
leaf_count=19762 4162 12656 41525 88973 42483 81381 3149 135980 22388 142335 9896 84238 58267 79253 32731 5432 28194 39572 14978 110313 93942 98850 30578 12090 28279 11191 31497 184459 25561 12042
internal_value=0 0.00880163 -0.00974999 0.00470737 -9.21592e-05 -0.0172397 -0.000823213 0.0261447 -0.0167652 0.0145354 -0.015332 -0.0028662 0.00184919 0.00393267 0.00770106 0.0214649 -0.014659 0.00773239 0.0140445 0.0104629 -0.0112721 -0.0171326 -0.00954701 -0.0190373 -0.0369521 0.0379078 0.0396116 0.00468852 0.0233224 -0.0502232
internal_weight=0 145295 126606 117545 78976.8 68844.6 57761.6 27749.5 15357.5 38568.4 65468.6 54867.4 39195.2 63619.3 47967.7 25451.1 15672.3 26551.5 14616.4 13459.3 49495.9 27163.4 12632.3 8144.06 6993.81 2894.15 13133 41863 24619.5 2725.26
internal_count=1586157 987911 598246 682487 420186 332110 266136 305424 81260 262301 312348 251796 182077 338926 259673 173328 69719 123810 137947 122969 230967 137025 65056 42668 38175 14340 167477 226942 167896 16204
is_linear=0
shrinkage=0.1


Tree=26
num_leaves=31
num_cat=0
split_feature=22 9 9 5 22 34 42 12 5 22 43 9 5 1 9 42 22 5 1 5 43 34 13 0 32 5 5 7 22 5
split_gain=1981.63 812.967 758.495 542.851 525.517 508.394 467.515 465.968 453.466 432.388 404.24 388.118 304.845 354.42 304.776 302.045 273.058 253.063 248.407 234.817 325.109 218.423 255.255 200.827 196.439 187.938 179.59 177.859 173.289 172.997
threshold=0.67652525694292598 0.68027607775899168 0.75807292542635152 10.500000000000002 0.36323411102172171 0.89444444444444449 35.584820717131485 0.68401962934395966 2.5000000000000004 0.89278872468527648 16.638494318181824 0.88119689628537334 33.500000000000007 6735.5000000000009 0.21437477734235841 96.097929674663177 0.2339536091396919 -1.0000000180025095e-35 2110.5000000000005 6.5000000000000009 21.310096153846157 0.24038461538461542 2640.0000000000005 5498.5000000000009 1.0000000180025095e-35 78.500000000000014 1.0000000180025095e-35 19.500000000000004 0.21460006257169675 5.5000000000000009
decision_type=2 2 2 2 2 2 2 2 2 2 2 2 2 2 2 2 2 2 2 2 2 2 2 2 2 2 2 2 2 2
left_child=1 4 3 5 28 6 8 11 -2 18 -5 16 13 15 -12 -6 -3 -17 -4 -18 -21 -8 -23 -20 -14 -16 -15 -13 -1 -28
right_child=2 7 9 10 12 -7 21 -9 -10 -11 14 27 24 26 25 17 19 -19 23 20 -22 22 -24 -25 -26 -27 29 -29 -30 -31
leaf_value=-0.063035541670902182 -0.078119617449858791 -0.035075379665738163 0.0070604429844668901 0.055468570206025664 -0.018756694492729618 -0.076208115031162441 0.026401976660019984 -0.012015609251591609 0.038683609260899768 0.047734477755452226 -0.045477631201673148 -0.0054055610404277685 0.0011256235398780523 0.046081416613132337 0.013778844959217454 0.096545741422869369 -0.0115868220351143 -0.055206367158220082 0.028137613696260905 0.044395203340947709 0.0050496171271962008 -0.0083377377036455008 -0.04673301896807612 -0.030350076679814555 -0.015473257191373388 0.0016446172503922314 -0.01573094069829906 0.038639357509155203 -0.02733975798609746 0.0021214887235772831
leaf_weight=1541.7156525328755 376.92605881392956 1840.0547676533461 11879.746829792857 1826.116261407733 8662.1497465521097 1189.4512069635093 879.70805254951119 20600.720132537186 2812.46584899351 5953.4763418696821 1059.495857745409 1140.5680761188269 26929.725363761187 571.54583333432674 30469.327296838164 112.8615982234478 7986.613547116518 4173.9434083253145 16019.306268051267 2215.783153809607 40220.334605619311 3662.8305818140507 3283.7925619073212 609.40669698268175 9696.9840381741524 21965.99344009161 18800.268812820315 4673.517162874341 11538.208961933851 7631.4350580722094
leaf_count=9547 1939 8897 94944 19159 43200 6970 4607 96984 21997 88545 5148 5981 115955 2695 209023 531 37331 28215 128435 13424 189910 19148 20294 4545 40383 152104 94541 25551 61694 34460
internal_value=0 -0.00651265 0.0111514 0.00499061 -0.0130226 -0.0140981 -0.00739164 0.000905892 0.0248797 0.0232231 0.00920206 0.00548934 -0.00985852 -0.0158996 0.00762269 -0.0295009 0.00276272 -0.0512111 0.0181043 0.00414353 0.00710403 -0.0205429 -0.0264879 0.0259942 -0.00326896 0.00869562 -0.00937733 0.0299989 -0.0315472 -0.0105765
